{
  "weights": {
    "fc1.weight": [
      [
        -0.22347772121429443,
        0.550567090511322
      ],
      [
        0.03663647174835205,
        -0.6417370438575745
      ],
      [
        -0.16131514310836792,
        0.29098081588745117
      ],
      [
        0.00836202036589384,
        -0.7472975254058838
      ],
      [
        -0.27717575430870056,
        -0.5769287943840027
      ],
      [
        1.2986336946487427,
        0.111915722489357
      ],
      [
        1.8390426635742188,
        -0.27577880024909973
      ],
      [
        0.12203475087881088,
        -0.6724856495857239
      ]
    ],
    "fc1.bias": [
      0.9329383969306946,
      0.5000720620155334,
      0.9937562942504883,
      0.48242950439453125,
      0.6623387336730957,
      -1.019380807876587,
      -1.3619235754013062,
      0.7462337017059326
    ],
    "fc2.weight": [
      [
        -0.45657774806022644,
        0.4254356026649475,
        -0.008655854500830173,
        0.2123338133096695,
        0.27863192558288574,
        1.0440406799316406,
        1.1997977495193481,
        0.36512792110443115
      ],
      [
        -0.1356877237558365,
        -0.13079316914081573,
        -0.23600688576698303,
        0.04107325151562691,
        -0.04637552425265312,
        0.27809929847717285,
        -0.01262529194355011,
        -0.05205511301755905
      ],
      [
        -0.7915328741073608,
        0.5901747345924377,
        -0.5994644165039062,
        0.5867016315460205,
        0.5307840704917908,
        1.3716520071029663,
        0.9311143755912781,
        0.259084552526474
      ],
      [
        -0.3520967960357666,
        0.05286474898457527,
        0.17634877562522888,
        0.1317633092403412,
        0.029009465128183365,
        -0.29243603348731995,
        -0.10020703822374344,
        -0.14937256276607513
      ]
    ],
    "fc2.bias": [
      0.7117841243743896,
      -0.3024798035621643,
      -0.018755022436380386,
      -0.2628544270992279
    ],
    "fc3.weight": [
      [
        -0.7942370176315308,
        -0.2616085410118103,
        -0.37573471665382385,
        0.01786637306213379
      ],
      [
        0.8088904023170471,
        -0.3024992346763611,
        0.6319249272346497,
        -0.32914310693740845
      ]
    ],
    "fc3.bias": [
      0.869006872177124,
      -1.6017355918884277
    ]
  },
  "scaler_mean": [
    0.501650690818613,
    0.26278288407221545
  ],
  "scaler_scale": [
    0.8945152972796266,
    0.5310627929471833
  ]
}