{
  "weights": {
    "fc1.weight": [
      [
        0.10025614500045776,
        -0.915443480014801
      ],
      [
        -0.705044150352478,
        0.6647391319274902
      ],
      [
        0.19384895265102386,
        0.38030382990837097
      ],
      [
        1.6812450885772705,
        0.34358206391334534
      ],
      [
        1.35769784450531,
        -0.7104809880256653
      ],
      [
        1.0556519031524658,
        -0.3636135160923004
      ],
      [
        -0.14692196249961853,
        -0.07897740602493286
      ],
      [
        2.11030650138855,
        0.20080982148647308
      ]
    ],
    "fc1.bias": [
      1.3663626909255981,
      -0.2757032513618469,
      -0.8221228718757629,
      -1.0308442115783691,
      -0.8268098831176758,
      1.7539905309677124,
      -0.5149051547050476,
      1.109368920326233
    ],
    "fc2.weight": [
      [
        0.35123172402381897,
        0.6136922836303711,
        -0.21438147127628326,
        -1.3535767793655396,
        -1.4245219230651855,
        -0.9288889169692993,
        -0.24138684570789337,
        1.640397071838379
      ],
      [
        0.09971295297145844,
        0.4089260995388031,
        0.20765040814876556,
        -0.8583674430847168,
        -0.9507819414138794,
        -0.486909419298172,
        0.18298819661140442,
        0.6158085465431213
      ],
      [
        0.34319260716438293,
        0.5073025822639465,
        -0.09267250448465347,
        -1.4817109107971191,
        -1.2123676538467407,
        -0.9276282787322998,
        0.12642407417297363,
        1.4104243516921997
      ],
      [
        0.8848007917404175,
        -0.19360901415348053,
        -0.05537552013993263,
        1.322090744972229,
        0.40448376536369324,
        0.9611616134643555,
        0.12928363680839539,
        -0.21379786729812622
      ]
    ],
    "fc2.bias": [
      0.3692490756511688,
      0.7201322317123413,
      0.4193398058414459,
      0.17459508776664734
    ],
    "fc3.weight": [
      [
        0.9336740374565125,
        1.1527655124664307,
        1.0985695123672485,
        -0.9393842816352844
      ],
      [
        -1.7456940412521362,
        -0.8433148264884949,
        -1.248186707496643,
        0.9164418578147888
      ]
    ],
    "fc3.bias": [
      -0.08941540867090225,
      0.07358907908201218
    ]
  },
  "scaler_mean": [
    0.5181450387823976,
    0.2553665836254929
  ],
  "scaler_scale": [
    0.8945360179280724,
    0.5430594209146733
  ]
}