{
  "weights": {
    "fc1.weight": [
      [
        0.19835716485977173,
        0.9792385101318359
      ],
      [
        1.3764578104019165,
        -0.5702798366546631
      ],
      [
        -1.9766192436218262,
        -0.5899083614349365
      ],
      [
        -0.3648661971092224,
        0.32570749521255493
      ],
      [
        -1.6466002464294434,
        0.8548716306686401
      ],
      [
        -1.2229540348052979,
        -0.39223068952560425
      ],
      [
        1.4653867483139038,
        0.014837422408163548
      ],
      [
        0.9683303833007812,
        0.3875770568847656
      ]
    ],
    "fc1.bias": [
      0.8716841340065002,
      -0.6136639714241028,
      -1.3623363971710205,
      1.2821877002716064,
      -0.8778114318847656,
      0.61614990234375,
      -0.9214922189712524,
      0.8481259346008301
    ],
    "fc2.weight": [
      [
        0.4719996750354767,
        -1.6875605583190918,
        1.0162724256515503,
        0.741515576839447,
        0.9192623496055603,
        -0.7885360717773438,
        -0.8922954797744751,
        0.7256249189376831
      ],
      [
        0.7336594462394714,
        0.9732515215873718,
        -1.4989502429962158,
        0.38167014718055725,
        -1.360905647277832,
        1.073278546333313,
        1.1775249242782593,
        -1.4014909267425537
      ],
      [
        -0.041550882160663605,
        -0.5371620655059814,
        0.028457466512918472,
        -0.41410064697265625,
        0.011018293909728527,
        -0.2416154444217682,
        -0.22854532301425934,
        -0.029521195217967033
      ],
      [
        0.14156968891620636,
        1.287049651145935,
        -1.6387615203857422,
        0.11489823460578918,
        -0.7852568030357361,
        1.0065531730651855,
        1.1869614124298096,
        -0.8020007014274597
      ]
    ],
    "fc2.bias": [
      0.9200911521911621,
      0.4855440855026245,
      -0.011213413439691067,
      0.6161324381828308
    ],
    "fc3.weight": [
      [
        1.2486937046051025,
        -1.0054783821105957,
        0.2093014419078827,
        -0.9128214120864868
      ],
      [
        -0.9688196778297424,
        1.3067007064819336,
        -0.05504179000854492,
        1.1897222995758057
      ]
    ],
    "fc3.bias": [
      0.1420598179101944,
      0.4377163052558899
    ]
  },
  "scaler_mean": [
    0.5181450387823976,
    0.2553665836254929
  ],
  "scaler_scale": [
    0.8945360179280724,
    0.5430594209146733
  ]
}