{
  "weights": {
    "fc1.weight": [
      [
        1.800387978553772,
        0.6245265603065491
      ],
      [
        -1.905814290046692,
        0.30529463291168213
      ],
      [
        -0.11924008280038834,
        -0.578690767288208
      ],
      [
        -0.3954974412918091,
        -0.5399592518806458
      ],
      [
        -1.222556710243225,
        0.21335609257221222
      ],
      [
        -0.7083656787872314,
        0.16397912800312042
      ],
      [
        -0.795407772064209,
        -0.3950917422771454
      ],
      [
        1.705031156539917,
        -0.6867146492004395
      ]
    ],
    "fc1.bias": [
      1.0753436088562012,
      -0.9224746823310852,
      0.9700419306755066,
      1.0710240602493286,
      1.7010061740875244,
      1.1092759370803833,
      0.6844936013221741,
      -0.7579059600830078
    ],
    "fc2.weight": [
      [
        1.2091360092163086,
        1.8062442541122437,
        -0.11760949343442917,
        0.017176061868667603,
        -0.1580030471086502,
        0.3239009976387024,
        -0.43487799167633057,
        -1.1302530765533447
      ],
      [
        0.03154709190130234,
        0.06873518973588943,
        -0.3386939764022827,
        0.2815954089164734,
        -0.34938573837280273,
        0.23837776482105255,
        -0.1885136216878891,
        0.024820085614919662
      ],
      [
        1.4892170429229736,
        0.34363365173339844,
        -0.10835617035627365,
        -0.514070451259613,
        -1.786318302154541,
        -1.7038768529891968,
        -0.5416862368583679,
        1.1411964893341064
      ],
      [
        -0.7538328766822815,
        -1.6044100522994995,
        0.559982419013977,
        0.5480960607528687,
        0.46633800864219666,
        0.4100325107574463,
        0.834788978099823,
        0.7882217168807983
      ]
    ],
    "fc2.bias": [
      0.421051025390625,
      -0.30327802896499634,
      -0.08205656707286835,
      0.2512650489807129
    ],
    "fc3.weight": [
      [
        1.5910190343856812,
        -0.22220772504806519,
        -1.2502683401107788,
        -0.8876693844795227
      ],
      [
        -1.5230506658554077,
        -0.20332804322242737,
        1.2111469507217407,
        0.8747080564498901
      ]
    ],
    "fc3.bias": [
      -0.1445324867963791,
      -0.6946506500244141
    ]
  },
  "scaler_mean": [
    0.5181450387823976,
    0.2553665836254929
  ],
  "scaler_scale": [
    0.8945360179280724,
    0.5430594209146733
  ]
}