{
  "weights": {
    "fc1.weight": [
      [
        1.994367241859436,
        0.5397096872329712
      ],
      [
        1.2166575193405151,
        -0.6359882950782776
      ],
      [
        0.0722719132900238,
        -0.3996731638908386
      ],
      [
        0.81569904088974,
        -0.9177844524383545
      ],
      [
        1.5272352695465088,
        0.3198592960834503
      ],
      [
        -0.3909323513507843,
        0.38680437207221985
      ],
      [
        -1.1623663902282715,
        -0.5559865236282349
      ],
      [
        -0.5543012619018555,
        0.2885308563709259
      ],
      [
        -0.26139453053474426,
        0.43211671710014343
      ],
      [
        -1.263249397277832,
        0.44562676548957825
      ],
      [
        0.33155155181884766,
        -0.5726881623268127
      ],
      [
        -1.1316380500793457,
        0.17269130051136017
      ],
      [
        1.8177663087844849,
        -0.27491673827171326
      ],
      [
        0.20074649155139923,
        1.2733510732650757
      ],
      [
        1.6845765113830566,
        0.24212488532066345
      ],
      [
        -0.14573799073696136,
        -0.19648362696170807
      ]
    ],
    "fc1.bias": [
      1.1066815853118896,
      -0.5743012428283691,
      0.9633047580718994,
      -0.7455601692199707,
      -0.9370414614677429,
      -0.07444264739751816,
      -0.7935501933097839,
      0.9221080541610718,
      0.6643086075782776,
      -0.5654829740524292,
      0.981995701789856,
      -0.6075838208198547,
      0.8003885746002197,
      -0.4966445565223694,
      -1.091376781463623,
      -0.6318720579147339
    ],
    "fc2.weight": [
      [
        0.021283484995365143,
        -0.15653105080127716,
        -0.07330606132745743,
        -0.02876473031938076,
        -0.13637469708919525,
        -0.06994868814945221,
        -0.21815703809261322,
        -0.15913823246955872,
        -0.19154682755470276,
        -0.08619172871112823,
        -0.06309874355792999,
        0.17909319698810577,
        -0.1364331692457199,
        -0.16928456723690033,
        0.16395694017410278,
        0.00147208571434021
      ],
      [
        -0.18449507653713226,
        -0.18603470921516418,
        -0.14051994681358337,
        0.06909778714179993,
        -0.1430293172597885,
        -0.08394849300384521,
        -0.07672662287950516,
        -0.15967793762683868,
        -0.1507265418767929,
        0.1769002228975296,
        -0.06865590810775757,
        0.0018360555404797196,
        0.14417290687561035,
        0.0895857885479927,
        -0.07416612654924393,
        0.017961561679840088
      ],
      [
        -0.139978289604187,
        -0.16921553015708923,
        0.01967647671699524,
        -0.027730345726013184,
        -0.30081114172935486,
        0.17730598151683807,
        -0.2533150315284729,
        -0.021799558773636818,
        -0.2234547734260559,
        0.14096078276634216,
        -0.11917835474014282,
        -0.15346181392669678,
        -0.26195743680000305,
        0.1288083791732788,
        0.17448073625564575,
        -0.1135282814502716
      ],
      [
        0.9160822629928589,
        -0.25175702571868896,
        -0.12079094350337982,
        -0.5541177988052368,
        -0.6561798453330994,
        0.2609032094478607,
        0.2718701958656311,
        0.19147615134716034,
        0.34047120809555054,
        0.5886304378509521,
        -0.3497201204299927,
        0.6806002259254456,
        0.6985127329826355,
        0.9368067979812622,
        -1.1406258344650269,
        -0.24062153697013855
      ],
      [
        0.8464341759681702,
        -0.6198649406433105,
        -0.24831955134868622,
        -0.9618139863014221,
        -0.893157958984375,
        0.10534951835870743,
        1.0231883525848389,
        0.04433848708868027,
        -0.02306770347058773,
        0.8580897450447083,
        0.09155027568340302,
        0.5687407851219177,
        1.0167678594589233,
        1.049264669418335,
        -1.0405045747756958,
        -0.2294626533985138
      ],
      [
        -0.7332994937896729,
        0.5694652795791626,
        0.422613263130188,
        0.5818947553634644,
        0.8833013772964478,
        0.04368044435977936,
        -0.5890653729438782,
        0.6636736989021301,
        0.16485539078712463,
        -0.45175814628601074,
        0.5073750615119934,
        -1.0353139638900757,
        -0.34345027804374695,
        -0.5991808772087097,
        0.9557842016220093,
        0.1490580141544342
      ],
      [
        -0.8390065431594849,
        0.5533223152160645,
        0.6126891374588013,
        0.9039009213447571,
        1.001175045967102,
        0.08523404598236084,
        -0.9438114762306213,
        0.5476658940315247,
        0.47194594144821167,
        -1.1472800970077515,
        0.4748035669326782,
        -0.4912588894367218,
        -0.46965187788009644,
        -1.25400710105896,
        0.8258635401725769,
        -0.10844725370407104
      ],
      [
        0.4023371934890747,
        0.8304997682571411,
        0.023075221106410027,
        1.1473993062973022,
        1.1575113534927368,
        -0.04267776012420654,
        -0.08638463914394379,
        -1.0875533819198608,
        -0.7333173155784607,
        -0.33924078941345215,
        0.3782520890235901,
        0.10548774898052216,
        0.49859267473220825,
        0.16469848155975342,
        1.2642314434051514,
        -0.2135065495967865
      ]
    ],
    "fc2.bias": [
      0.025999177247285843,
      0.03141088783740997,
      -0.2828214168548584,
      0.4349152147769928,
      0.05121859908103943,
      0.5244795680046082,
      0.7737005352973938,
      -0.5525339245796204
    ],
    "fc3.weight": [
      [
        -0.05713789910078049,
        -0.28843316435813904,
        -0.21584437787532806,
        0.8189812302589417,
        0.996770441532135,
        -0.8297048807144165,
        -0.821917712688446,
        -1.2158926725387573
      ],
      [
        0.1680603325366974,
        -0.22612595558166504,
        0.2719023525714874,
        -0.4761311113834381,
        -0.4738646447658539,
        0.7367573976516724,
        0.9563748836517334,
        1.0032052993774414
      ]
    ],
    "fc3.bias": [
      -0.12102308124303818,
      -0.2117394357919693
    ]
  },
  "scaler_mean": [
    0.5181450387823976,
    0.2553665836254929
  ],
  "scaler_scale": [
    0.8945360179280724,
    0.5430594209146733
  ]
}