{
  "weights": {
    "fc1.weight": [
      [
        -0.028278574347496033,
        1.4069654941558838
      ],
      [
        -1.3982865810394287,
        -0.16103896498680115
      ],
      [
        0.7411131858825684,
        -0.7124709486961365
      ],
      [
        0.6397239565849304,
        -0.4426192343235016
      ],
      [
        0.8117119669914246,
        -0.8338473439216614
      ],
      [
        0.17817673087120056,
        0.05143275111913681
      ],
      [
        -0.18281958997249603,
        0.38478097319602966
      ],
      [
        -1.235101580619812,
        0.1619492769241333
      ],
      [
        -1.403902292251587,
        0.24782754480838776
      ],
      [
        1.791759967803955,
        0.3805883228778839
      ],
      [
        0.14199209213256836,
        -0.4108700454235077
      ],
      [
        -0.4614477753639221,
        0.6730396747589111
      ],
      [
        -1.1570173501968384,
        -0.1915384829044342
      ],
      [
        0.8339472413063049,
        0.3029554784297943
      ],
      [
        1.6284418106079102,
        1.2669180631637573
      ],
      [
        -0.846183717250824,
        -0.49919188022613525
      ]
    ],
    "fc1.bias": [
      -0.787553608417511,
      -0.944167971611023,
      -0.5881437063217163,
      0.40604642033576965,
      -0.6818076372146606,
      -0.6322784423828125,
      0.8601252436637878,
      0.5738263130187988,
      -0.8161794543266296,
      -1.0332558155059814,
      0.3077693283557892,
      1.1183029413223267,
      -0.7317280173301697,
      0.6205862760543823,
      0.24569348990917206,
      0.32754388451576233
    ],
    "fc2.weight": [
      [
        -1.613879680633545,
        -1.5517218112945557,
        0.6872175931930542,
        0.01636457070708275,
        0.8273728489875793,
        0.16877509653568268,
        0.4160470962524414,
        0.6732261180877686,
        -1.2504044771194458,
        1.2848381996154785,
        0.2919042706489563,
        0.4349774420261383,
        -0.9206188917160034,
        -0.8580484986305237,
        -0.16139931976795197,
        0.4146740734577179
      ],
      [
        -1.441209316253662,
        -0.4824637770652771,
        0.7954382300376892,
        -0.13486722111701965,
        0.876876711845398,
        -0.09960781037807465,
        0.006914537865668535,
        0.6810033321380615,
        -0.9985261559486389,
        1.3392376899719238,
        -0.10676603019237518,
        0.1606069654226303,
        -0.28195735812187195,
        -0.45996570587158203,
        0.0889255553483963,
        0.740739107131958
      ],
      [
        0.8356227874755859,
        0.3368735909461975,
        -1.05656099319458,
        0.7241190075874329,
        -1.1436083316802979,
        0.013023346662521362,
        0.1249830573797226,
        -0.024704286828637123,
        0.6585862636566162,
        -1.1942417621612549,
        0.30166661739349365,
        0.19127196073532104,
        0.2680216133594513,
        0.1444855034351349,
        0.8624328374862671,
        -0.1271459013223648
      ],
      [
        -0.257529079914093,
        -0.2131151407957077,
        -0.013332996517419815,
        -0.2828192412853241,
        -0.08425864577293396,
        -0.11150291562080383,
        0.11196203529834747,
        -0.28727877140045166,
        -0.15306676924228668,
        0.1473863422870636,
        -0.00852302834391594,
        -0.040034037083387375,
        -0.17249354720115662,
        0.11906316131353378,
        -0.1559130847454071,
        -0.05220857262611389
      ],
      [
        1.2431879043579102,
        0.9787497520446777,
        -0.47527968883514404,
        -0.3971726596355438,
        -0.42258957028388977,
        -0.15793123841285706,
        0.013685121200978756,
        -0.13556016981601715,
        0.9878324866294861,
        -1.414887547492981,
        -0.7643964886665344,
        0.09944772720336914,
        0.543319821357727,
        0.003791521769016981,
        0.816947877407074,
        0.7296173572540283
      ],
      [
        1.3802272081375122,
        0.7076632380485535,
        -0.8754187822341919,
        0.7759563326835632,
        -1.3872909545898438,
        -0.14801165461540222,
        -0.021849188953638077,
        -0.3429916799068451,
        1.1200085878372192,
        -1.4536850452423096,
        0.7723760008811951,
        0.27772822976112366,
        0.5099005103111267,
        0.6885138750076294,
        0.8854692578315735,
        -0.5955674648284912
      ],
      [
        1.1204650402069092,
        -0.48038288950920105,
        0.3151799440383911,
        0.3134717047214508,
        0.5384997129440308,
        -0.08856649696826935,
        -1.0184929370880127,
        0.47310101985931396,
        -0.38197243213653564,
        1.1066932678222656,
        0.3988659083843231,
        -0.7990551590919495,
        -0.13792069256305695,
        -0.22201740741729736,
        0.9795665740966797,
        0.9656501412391663
      ],
      [
        0.7771088480949402,
        0.22672101855278015,
        -0.2821866273880005,
        0.31436342000961304,
        -0.21924427151679993,
        0.1363155096769333,
        0.4364277720451355,
        -0.1213284358382225,
        0.8199819326400757,
        -0.7423539161682129,
        -0.26079466938972473,
        0.3639349937438965,
        0.3307581841945648,
        0.44406846165657043,
        0.28236499428749084,
        -0.19945573806762695
      ]
    ],
    "fc2.bias": [
      0.48557624220848083,
      0.23473428189754486,
      -0.05570068955421448,
      -0.24708300828933716,
      -0.2623562514781952,
      0.1898738294839859,
      0.046916574239730835,
      0.48371070623397827
    ],
    "fc3.weight": [
      [
        -0.8583285212516785,
        -0.9995189309120178,
        0.4848294258117676,
        0.0986911803483963,
        0.21710313856601715,
        0.8290863633155823,
        -1.112041711807251,
        0.3351890742778778
      ],
      [
        0.8465681076049805,
        0.8718513250350952,
        -0.5840374231338501,
        0.142795130610466,
        -0.7753298878669739,
        -0.6930046081542969,
        0.905433177947998,
        -0.6659813523292542
      ]
    ],
    "fc3.bias": [
      -0.17680875957012177,
      0.03785017132759094
    ]
  },
  "scaler_mean": [
    0.5181450387823976,
    0.2553665836254929
  ],
  "scaler_scale": [
    0.8945360179280724,
    0.5430594209146733
  ]
}