{
  "weights": {
    "fc1.weight": [
      [
        -0.515767514705658,
        0.4611416459083557
      ],
      [
        0.33918312191963196,
        -0.523377001285553
      ],
      [
        -1.4235036373138428,
        -0.7154614329338074
      ],
      [
        -0.14495380222797394,
        0.6458186507225037
      ],
      [
        -0.07534624636173248,
        0.5116795897483826
      ],
      [
        0.494785338640213,
        -0.5525352358818054
      ],
      [
        1.180450439453125,
        -0.0008564095478504896
      ],
      [
        -1.2339344024658203,
        -0.13462801277637482
      ],
      [
        1.0667997598648071,
        0.3301670253276825
      ],
      [
        0.9150117635726929,
        -0.839589536190033
      ],
      [
        0.8472864031791687,
        0.29438504576683044
      ],
      [
        -1.3642622232437134,
        0.7650243043899536
      ],
      [
        1.8508861064910889,
        0.28004834055900574
      ],
      [
        -1.0112977027893066,
        0.5716416239738464
      ],
      [
        1.0983492136001587,
        0.11114822328090668
      ],
      [
        -0.7709692120552063,
        -0.0676836147904396
      ]
    ],
    "fc1.bias": [
      0.9304900169372559,
      1.0205169916152954,
      -0.983519434928894,
      0.9115880727767944,
      -0.19843962788581848,
      0.5859388709068298,
      0.9069164395332336,
      0.7156203389167786,
      0.5583027005195618,
      -0.6962707042694092,
      0.5339838862419128,
      -0.7584618926048279,
      -1.1560732126235962,
      -0.5651839375495911,
      0.7509520053863525,
      1.05807363986969
    ],
    "fc2.weight": [
      [
        0.27516496181488037,
        -0.20121723413467407,
        1.0756232738494873,
        0.297932893037796,
        0.5495797395706177,
        -0.11503897607326508,
        0.6454390287399292,
        -0.3469758927822113,
        0.590593159198761,
        -0.6398898363113403,
        0.5261374711990356,
        0.4256824254989624,
        -1.2972406148910522,
        0.748821496963501,
        0.48663797974586487,
        0.23911002278327942
      ],
      [
        0.13182441890239716,
        0.46709442138671875,
        -0.8052006959915161,
        -0.055337369441986084,
        -0.09883732348680496,
        0.2934911251068115,
        -0.19574685394763947,
        0.5074386596679688,
        -0.16582918167114258,
        0.6545925736427307,
        -0.12324592471122742,
        -0.5103288292884827,
        1.1041326522827148,
        -0.7005554437637329,
        -0.22008228302001953,
        0.22142428159713745
      ],
      [
        -1.440921425819397,
        0.1706332564353943,
        -0.07785136252641678,
        -0.758625864982605,
        -0.40591534972190857,
        0.4221208393573761,
        0.4941641092300415,
        -0.0019379382720217109,
        0.5400227904319763,
        0.7860104441642761,
        0.04910604655742645,
        -0.3919879198074341,
        1.3663824796676636,
        -0.5840586423873901,
        0.6774390339851379,
        -0.5359889268875122
      ],
      [
        -0.1518440693616867,
        -0.1356160193681717,
        -0.04093564301729202,
        0.03772894665598869,
        0.14856770634651184,
        -0.24517229199409485,
        -0.05849003419280052,
        0.11435263603925705,
        0.1091417744755745,
        -0.21611115336418152,
        -0.29594117403030396,
        -0.08329848945140839,
        -0.242723748087883,
        -0.23101255297660828,
        -0.12671580910682678,
        -0.21623055636882782
      ],
      [
        -0.18589550256729126,
        0.07506576180458069,
        -0.24718576669692993,
        -0.17205774784088135,
        -0.17712542414665222,
        -0.18174126744270325,
        -0.09811612963676453,
        -0.08880606293678284,
        -0.014504075050354004,
        -0.1138981282711029,
        0.06994110345840454,
        0.18445000052452087,
        -0.24404990673065186,
        0.004030078649520874,
        -0.19546917080879211,
        0.14497092366218567
      ],
      [
        0.44548678398132324,
        -0.1408349871635437,
        1.2924368381500244,
        0.27243438363075256,
        0.4734838306903839,
        0.08947563916444778,
        0.5825880169868469,
        -0.6496803164482117,
        0.5935264825820923,
        -0.7953895926475525,
        0.3358907103538513,
        0.7847151756286621,
        -1.061683177947998,
        0.4544525742530823,
        0.7461537718772888,
        0.19928894937038422
      ],
      [
        -0.03521103039383888,
        -0.11875886470079422,
        0.04417194053530693,
        0.03794153407216072,
        -0.043110404163599014,
        0.03495551645755768,
        -0.0846513882279396,
        0.07439862191677094,
        0.02685529924929142,
        0.10301179438829422,
        -0.2951848804950714,
        -0.2799881398677826,
        -0.13143964111804962,
        0.08871525526046753,
        -0.39319702982902527,
        -0.25777798891067505
      ],
      [
        0.16859503090381622,
        0.057575564831495285,
        -1.8056458234786987,
        0.19970166683197021,
        -0.3296643793582916,
        0.31510496139526367,
        -0.6340038776397705,
        0.6530293226242065,
        -0.058018431067466736,
        1.0501368045806885,
        -0.14867693185806274,
        -1.1595869064331055,
        1.4657481908798218,
        -1.0878357887268066,
        -0.42977261543273926,
        0.7486128807067871
      ]
    ],
    "fc2.bias": [
      0.45424705743789673,
      0.17723435163497925,
      -0.2770664393901825,
      -0.23674249649047852,
      -0.24833178520202637,
      0.42608290910720825,
      -0.10660422593355179,
      0.5181449055671692
    ],
    "fc3.weight": [
      [
        0.4150218963623047,
        -0.8094844222068787,
        -0.9719814658164978,
        -0.20207779109477997,
        0.035053152590990067,
        0.49432745575904846,
        0.07550447434186935,
        -1.0925705432891846
      ],
      [
        -0.8807545900344849,
        0.7943695187568665,
        0.96779865026474,
        0.1681700497865677,
        -0.04645480215549469,
        -0.7508417367935181,
        0.03253545984625816,
        1.2921243906021118
      ]
    ],
    "fc3.bias": [
      0.07933278381824493,
      0.15683454275131226
    ]
  },
  "scaler_mean": [
    0.5181450387823976,
    0.2553665836254929
  ],
  "scaler_scale": [
    0.8945360179280724,
    0.5430594209146733
  ]
}