{
  "weights": {
    "fc1.weight": [
      [
        1.2007896900177002,
        -0.8286243081092834
      ],
      [
        -1.4231764078140259,
        0.021848851814866066
      ],
      [
        0.0547359436750412,
        0.24364696443080902
      ],
      [
        -0.48448091745376587,
        1.1407448053359985
      ],
      [
        0.7512082457542419,
        -0.08519712835550308
      ],
      [
        -1.8581061363220215,
        0.005912032909691334
      ],
      [
        0.6240097284317017,
        -0.17881254851818085
      ],
      [
        -0.09291831403970718,
        0.022929487749934196
      ]
    ],
    "fc1.bias": [
      0.1915249526500702,
      0.5841104984283447,
      -0.5138393044471741,
      -0.4123677909374237,
      0.7791100740432739,
      -1.046650767326355,
      0.20738549530506134,
      -0.44039517641067505
    ],
    "fc2.weight": [
      [
        0.744809627532959,
        0.7739596366882324,
        -0.132533460855484,
        -0.5973536372184753,
        -0.5183470249176025,
        -0.9313955307006836,
        0.497634619474411,
        0.11607338488101959
      ],
      [
        -0.00966673344373703,
        0.0034126811660826206,
        0.24541401863098145,
        -0.007735169027000666,
        -0.3915582597255707,
        -0.07760187983512878,
        0.03271538391709328,
        -0.1966225504875183
      ],
      [
        -0.35731247067451477,
        0.10809274017810822,
        0.18420103192329407,
        0.6337369084358215,
        0.5151048302650452,
        1.2221643924713135,
        -0.12295401096343994,
        -0.3322902321815491
      ],
      [
        0.771965742111206,
        1.7406566143035889,
        -0.14730100333690643,
        -1.4210455417633057,
        -0.07940899580717087,
        -1.6193821430206299,
        0.0742310956120491,
        0.23550689220428467
      ]
    ],
    "fc2.bias": [
      0.12264063954353333,
      -0.20044176280498505,
      0.8550018072128296,
      -0.18923786282539368
    ],
    "fc3.weight": [
      [
        -1.0871716737747192,
        0.05872965231537819,
        1.3693957328796387,
        -1.3872404098510742
      ],
      [
        0.8842244744300842,
        0.07596270740032196,
        -0.49677595496177673,
        1.0934319496154785
      ]
    ],
    "fc3.bias": [
      0.5448654294013977,
      -0.6487942337989807
    ]
  },
  "scaler_mean": [
    0.5181450387823976,
    0.2553665836254929
  ],
  "scaler_scale": [
    0.8945360179280724,
    0.5430594209146733
  ]
}