{
  "weights": {
    "fc1.weight": [
      [
        -1.7759552001953125,
        0.0017171116778627038
      ],
      [
        0.07811853289604187,
        -1.117135763168335
      ],
      [
        1.0173518657684326,
        -0.7357348799705505
      ],
      [
        -0.8792638778686523,
        0.6282064914703369
      ],
      [
        -1.801866054534912,
        -0.5574992299079895
      ],
      [
        -0.5370869636535645,
        1.4095603227615356
      ],
      [
        1.7423936128616333,
        -0.4007512629032135
      ],
      [
        -1.7550736665725708,
        -0.45239558815956116
      ]
    ],
    "fc1.bias": [
      -1.0536372661590576,
      -0.27036377787590027,
      -0.5184959769248962,
      1.2119345664978027,
      -1.3039240837097168,
      -0.5499181151390076,
      -0.9550760984420776,
      0.789220929145813
    ],
    "fc2.weight": [
      [
        1.4683632850646973,
        0.41348326206207275,
        -0.35996773838996887,
        0.8276556730270386,
        1.0909152030944824,
        0.5676484704017639,
        -0.8361583948135376,
        -1.6270772218704224
      ],
      [
        0.1948687732219696,
        -0.09298045933246613,
        -0.17760694026947021,
        -0.11833380907773972,
        -0.11469493061304092,
        -0.1431282013654709,
        0.10241992026567459,
        -0.15525420010089874
      ],
      [
        0.3456835150718689,
        0.04045785591006279,
        -0.24342624843120575,
        -0.2556172311306,
        0.005471756681799889,
        0.08734221756458282,
        -0.20782619714736938,
        -0.3160300850868225
      ],
      [
        -1.68213951587677,
        0.9186233282089233,
        0.887926459312439,
        0.6546379923820496,
        -1.9129629135131836,
        -1.2992992401123047,
        1.1119133234024048,
        1.100641131401062
      ]
    ],
    "fc2.bias": [
      1.5578644275665283,
      -0.06806041300296783,
      -0.1949526071548462,
      -0.1842721849679947
    ],
    "fc3.weight": [
      [
        1.4711896181106567,
        0.29484301805496216,
        0.4530445337295532,
        -0.6858578324317932
      ],
      [
        -0.8892120718955994,
        -0.37836146354675293,
        0.10528135299682617,
        1.4187473058700562
      ]
    ],
    "fc3.bias": [
      0.5243223905563354,
      0.0683530643582344
    ]
  },
  "scaler_mean": [
    0.5181450387823976,
    0.2553665836254929
  ],
  "scaler_scale": [
    0.8945360179280724,
    0.5430594209146733
  ]
}