{
  "weights": {
    "fc1.weight": [
      [
        0.12080194056034088,
        0.8888589143753052
      ],
      [
        -0.10385694354772568,
        -0.11701498180627823
      ],
      [
        1.2222938537597656,
        0.6503392457962036
      ],
      [
        -0.11378021538257599,
        -0.07138742506504059
      ],
      [
        -0.3590885102748871,
        0.9139202833175659
      ],
      [
        -1.5126820802688599,
        0.5179010629653931
      ],
      [
        -0.10297763347625732,
        0.555770754814148
      ],
      [
        1.475104808807373,
        0.003426356241106987
      ]
    ],
    "fc1.bias": [
      0.42103612422943115,
      -0.5498765110969543,
      0.681841254234314,
      -0.5229604244232178,
      1.3192100524902344,
      -0.8168728947639465,
      -0.37880587577819824,
      -0.9386350512504578
    ],
    "fc2.weight": [
      [
        0.5378554463386536,
        -0.0999421626329422,
        -0.7150675058364868,
        0.22727656364440918,
        0.4287092089653015,
        -1.0819168090820312,
        -2.5663673877716064,
        0.6691731214523315
      ],
      [
        0.7162306308746338,
        -0.2158460170030594,
        1.4995962381362915,
        -0.16849830746650696,
        0.7226701378822327,
        0.7584027647972107,
        -0.04587731137871742,
        -0.4265744984149933
      ],
      [
        1.0359132289886475,
        -0.20852360129356384,
        -0.40285593271255493,
        0.15651042759418488,
        -1.2218466997146606,
        0.0038298096042126417,
        -0.04034252464771271,
        1.553510069847107
      ],
      [
        -0.11461325734853745,
        -0.003260438097640872,
        0.30952268838882446,
        -0.2531774640083313,
        -0.16101309657096863,
        -0.057806823402643204,
        -0.3547995686531067,
        1.111298680305481
      ]
    ],
    "fc2.bias": [
      0.8028705716133118,
      0.052412327378988266,
      1.0625742673873901,
      -0.34547144174575806
    ],
    "fc3.weight": [
      [
        -1.3168529272079468,
        0.3794364333152771,
        -1.6858466863632202,
        -1.152432918548584
      ],
      [
        0.5198798179626465,
        -1.1110336780548096,
        2.1771512031555176,
        1.4415885210037231
      ]
    ],
    "fc3.bias": [
      -0.3745594024658203,
      0.6784087419509888
    ]
  },
  "scaler_mean": [
    0.5181450387823976,
    0.2553665836254929
  ],
  "scaler_scale": [
    0.8945360179280724,
    0.5430594209146733
  ]
}