{
  "weights": {
    "fc1.weight": [
      [
        -0.39933913946151733,
        0.2111193835735321
      ],
      [
        1.9200648069381714,
        -0.020147420465946198
      ],
      [
        -1.064420223236084,
        0.6697137355804443
      ],
      [
        -0.1844615936279297,
        -0.1775454729795456
      ],
      [
        1.0552822351455688,
        -0.28052377700805664
      ],
      [
        -0.8685596585273743,
        0.612890899181366
      ],
      [
        0.8204068541526794,
        1.7683122158050537
      ],
      [
        1.6866761445999146,
        0.20894476771354675
      ]
    ],
    "fc1.bias": [
      0.6023349165916443,
      0.8235800862312317,
      1.7366523742675781,
      -0.6461385488510132,
      1.7229405641555786,
      1.6882177591323853,
      -0.16613827645778656,
      0.8515450954437256
    ],
    "fc2.weight": [
      [
        0.3846103549003601,
        0.18282009661197662,
        0.3901508152484894,
        0.0935664251446724,
        -0.8979537487030029,
        0.40821322798728943,
        0.910416841506958,
        0.0453931987285614
      ],
      [
        0.23539213836193085,
        1.4418095350265503,
        0.39365366101264954,
        0.16405706107616425,
        -0.9629721641540527,
        0.2185923010110855,
        0.00844765268266201,
        1.073038935661316
      ],
      [
        -0.08188976347446442,
        0.9919446706771851,
        0.24634267389774323,
        -0.10255700349807739,
        -0.8398475050926208,
        0.45264941453933716,
        0.4863263964653015,
        1.1334689855575562
      ],
      [
        -0.6564147472381592,
        0.9534263610839844,
        -1.550002098083496,
        0.27708131074905396,
        0.34454602003097534,
        -1.7815930843353271,
        1.1732991933822632,
        0.9727267622947693
      ]
    ],
    "fc2.bias": [
      -1.1993215084075928,
      -0.7827949523925781,
      -0.7457588315010071,
      -0.07675784081220627
    ],
    "fc3.weight": [
      [
        0.47259047627449036,
        1.2733813524246216,
        0.48361077904701233,
        -0.9674582481384277
      ],
      [
        -0.5514822006225586,
        -1.2276380062103271,
        -0.5391616821289062,
        1.5533015727996826
      ]
    ],
    "fc3.bias": [
      -1.3907756805419922,
      0.9305443167686462
    ]
  },
  "scaler_mean": [
    0.5181450387823976,
    0.2553665836254929
  ],
  "scaler_scale": [
    0.8945360179280724,
    0.5430594209146733
  ]
}