{
  "weights": {
    "fc1.weight": [
      [
        -1.0676474571228027,
        0.43487074971199036
      ],
      [
        0.055224791169166565,
        0.08970647305250168
      ],
      [
        0.6096309423446655,
        -0.7172614336013794
      ],
      [
        -1.5514236688613892,
        0.31144991517066956
      ],
      [
        -2.616021156311035,
        -0.15585380792617798
      ],
      [
        0.5538051724433899,
        -0.5716407299041748
      ],
      [
        0.15415075421333313,
        -0.011905894614756107
      ],
      [
        -2.360507011413574,
        -0.11964897066354752
      ]
    ],
    "fc1.bias": [
      1.6447852849960327,
      -0.43677350878715515,
      1.3249735832214355,
      0.7136653065681458,
      1.2859171628952026,
      1.2329519987106323,
      -0.44726690649986267,
      -1.4787925481796265
    ],
    "fc2.weight": [
      [
        -0.30535876750946045,
        -0.015598421916365623,
        -0.1458306610584259,
        0.094030000269413,
        -0.19371546804904938,
        -0.25279590487480164,
        -0.2642804682254791,
        -0.015815014019608498
      ],
      [
        -0.3082253336906433,
        -0.24123920500278473,
        -0.08084456622600555,
        -0.04951247200369835,
        0.003728436538949609,
        -0.08967858552932739,
        -0.10872247070074081,
        0.2517062723636627
      ],
      [
        0.973944902420044,
        -0.1645137518644333,
        -0.2593640685081482,
        -0.07664412260055542,
        -0.17491060495376587,
        -0.1637204885482788,
        0.022577686235308647,
        1.829811692237854
      ],
      [
        -1.9126524925231934,
        -0.1388586163520813,
        0.601313591003418,
        0.7741090059280396,
        2.1214544773101807,
        0.5517548322677612,
        -0.16105398535728455,
        -1.7267099618911743
      ]
    ],
    "fc2.bias": [
      -0.33025288581848145,
      -0.34110695123672485,
      0.6625245213508606,
      -0.08892793208360672
    ],
    "fc3.weight": [
      [
        -0.26478636264801025,
        -0.25404679775238037,
        1.3213164806365967,
        -0.9880127310752869
      ],
      [
        -0.44712895154953003,
        -0.37754714488983154,
        -0.6637747883796692,
        1.2209725379943848
      ]
    ],
    "fc3.bias": [
      0.7462538480758667,
      -0.44278547167778015
    ]
  },
  "scaler_mean": [
    0.5181450387823976,
    0.2553665836254929
  ],
  "scaler_scale": [
    0.8945360179280724,
    0.5430594209146733
  ]
}