{
  "weights": {
    "fc1.weight": [
      [
        0.2008313238620758,
        -0.4595414102077484
      ],
      [
        0.1940501630306244,
        0.2110946774482727
      ],
      [
        0.2932400703430176,
        -0.11261486262083054
      ],
      [
        -0.17479662597179413,
        0.23524954915046692
      ],
      [
        0.3673047125339508,
        -0.5080398917198181
      ],
      [
        0.5419654846191406,
        -0.7057262063026428
      ],
      [
        -0.6389482617378235,
        0.645135223865509
      ],
      [
        -0.1181887835264206,
        0.6209603548049927
      ]
    ],
    "fc1.bias": [
      0.5370655655860901,
      0.0796009823679924,
      0.3142950236797333,
      0.6146783828735352,
      -0.026507079601287842,
      -0.6865664124488831,
      -0.2922321557998657,
      0.6858968138694763
    ],
    "fc2.weight": [
      [
        0.14677754044532776,
        -0.14964550733566284,
        -0.15355563163757324,
        0.09664680808782578,
        -0.07591785490512848,
        -0.027349300682544708,
        -0.24501973390579224,
        -0.2245250642299652
      ],
      [
        0.02320234477519989,
        -0.31968122720718384,
        -0.28496450185775757,
        0.04773648828268051,
        -0.15462371706962585,
        -0.22486114501953125,
        -0.17377659678459167,
        -0.28998860716819763
      ],
      [
        -0.1530747413635254,
        -0.242288738489151,
        0.18741388618946075,
        -0.25303539633750916,
        0.17064020037651062,
        -0.25736483931541443,
        0.11667562276124954,
        0.07126450538635254
      ],
      [
        -0.3389829993247986,
        -0.03017115779221058,
        0.28330954909324646,
        -0.14991527795791626,
        -0.08924438804388046,
        -0.04122475907206535,
        -0.23299923539161682,
        -0.05245617777109146
      ]
    ],
    "fc2.bias": [
      -0.31054913997650146,
      -0.2778075039386749,
      -0.25420081615448,
      0.06246495619416237
    ],
    "fc3.weight": [
      [
        -0.36579322814941406,
        -0.3255891799926758,
        0.4959709048271179,
        -0.18040525913238525
      ],
      [
        -0.2018851637840271,
        0.4829699397087097,
        0.23211252689361572,
        -0.3228875398635864
      ]
    ],
    "fc3.bias": [
      0.2741258442401886,
      0.20410285890102386
    ]
  },
  "scaler_mean": [
    0.5181450387823976,
    0.2553665836254929
  ],
  "scaler_scale": [
    0.8945360179280724,
    0.5430594209146733
  ]
}