{
  "weights": {
    "fc1.weight": [
      [
        -1.521119475364685,
        -0.04429011046886444
      ],
      [
        0.19774970412254333,
        -0.44884753227233887
      ],
      [
        0.11777479201555252,
        0.17696404457092285
      ],
      [
        -0.4000452756881714,
        0.757298469543457
      ],
      [
        0.005894162692129612,
        -0.27340447902679443
      ],
      [
        0.7163006663322449,
        0.7436985969543457
      ],
      [
        1.0264912843704224,
        0.6111229062080383
      ],
      [
        0.14511938393115997,
        -0.687678337097168
      ],
      [
        0.899952232837677,
        -0.7673773169517517
      ],
      [
        1.0790373086929321,
        0.42917537689208984
      ],
      [
        0.6441777944564819,
        -0.5690682530403137
      ],
      [
        1.0967220067977905,
        0.016975438222289085
      ],
      [
        -0.4879973530769348,
        0.22210945188999176
      ],
      [
        0.859030544757843,
        -0.6955376863479614
      ],
      [
        1.1523187160491943,
        0.33957815170288086
      ],
      [
        1.2243095636367798,
        -0.8214281797409058
      ]
    ],
    "fc1.bias": [
      -0.8281046748161316,
      0.9407016634941101,
      -0.5732399821281433,
      1.0613868236541748,
      1.148882269859314,
      0.639360785484314,
      0.6526259779930115,
      1.1069368124008179,
      -0.6349203586578369,
      -0.5446499586105347,
      -0.47456496953964233,
      -0.7974802255630493,
      1.249347448348999,
      0.27578991651535034,
      -0.64938884973526,
      0.32612836360931396
    ],
    "fc2.weight": [
      [
        -1.2308012247085571,
        0.19769234955310822,
        0.12109825015068054,
        -0.20424114167690277,
        0.32268646359443665,
        0.03167906031012535,
        -0.8835967183113098,
        0.4591391384601593,
        0.4722440540790558,
        0.41666194796562195,
        0.2313963919878006,
        0.4809410572052002,
        0.4971218407154083,
        -0.31618693470954895,
        0.76312655210495,
        -0.645362138748169
      ],
      [
        -0.3120397925376892,
        0.454971581697464,
        -0.0687701627612114,
        -0.6709238290786743,
        -0.12969531118869781,
        -0.37748000025749207,
        -0.06666848063468933,
        0.44427305459976196,
        1.1989549398422241,
        1.2404420375823975,
        0.9032912254333496,
        0.9811599850654602,
        -1.2167081832885742,
        0.6288284659385681,
        1.201667070388794,
        0.1423879712820053
      ],
      [
        -1.0842912197113037,
        0.42123928666114807,
        0.1514674574136734,
        0.01587287150323391,
        0.49850407242774963,
        -0.3002130687236786,
        -1.0819581747055054,
        0.17241759598255157,
        0.4046700894832611,
        0.57094806432724,
        0.48932909965515137,
        0.544868528842926,
        0.34091153740882874,
        -0.13936816155910492,
        0.7204852104187012,
        -0.8495236039161682
      ],
      [
        1.1888399124145508,
        0.227821484208107,
        -0.008223937824368477,
        0.5373053550720215,
        0.461406409740448,
        0.6471309065818787,
        0.8141881227493286,
        -0.1213412806391716,
        -0.553787112236023,
        -0.13592056930065155,
        -0.05005154013633728,
        -0.6304233074188232,
        0.6791198253631592,
        0.9697028994560242,
        -0.6544478535652161,
        0.5233141183853149
      ],
      [
        -0.10826811194419861,
        -0.21050319075584412,
        0.1378098726272583,
        -0.09610548615455627,
        -0.13520604372024536,
        0.09751632809638977,
        -0.23892053961753845,
        -0.22004690766334534,
        0.20930549502372742,
        0.051760852336883545,
        -0.10173371434211731,
        -0.11335417628288269,
        -0.02291080355644226,
        -0.12608623504638672,
        -0.15475308895111084,
        0.005329221487045288
      ],
      [
        -0.9922473430633545,
        0.3783983588218689,
        0.07106167078018188,
        0.06386736780405045,
        0.4527556896209717,
        -0.023234274238348007,
        -1.1245847940444946,
        0.31329163908958435,
        0.27765366435050964,
        0.5946207046508789,
        0.21145237982273102,
        0.12631353735923767,
        0.1837485432624817,
        0.03458842635154724,
        0.6789694428443909,
        -0.8884446620941162
      ],
      [
        -0.24702668190002441,
        0.14899149537086487,
        -0.16726666688919067,
        -1.29643976688385,
        -0.0058616753667593,
        -0.1150187999010086,
        0.07745382934808731,
        0.33963051438331604,
        1.1539134979248047,
        1.298876404762268,
        1.0593922138214111,
        0.9323006868362427,
        -0.8854242563247681,
        0.73784339427948,
        1.3019545078277588,
        0.4406699538230896
      ],
      [
        -1.5302977561950684,
        0.2708428204059601,
        -0.13744789361953735,
        0.14819630980491638,
        0.30781716108322144,
        -0.24892841279506683,
        -1.035618543624878,
        0.23141103982925415,
        0.45323166251182556,
        0.2552001178264618,
        0.25397393107414246,
        0.16069428622722626,
        0.3420017957687378,
        0.027318520471453667,
        0.9256408214569092,
        -1.1352680921554565
      ]
    ],
    "fc2.bias": [
      0.33091822266578674,
      -0.16363738477230072,
      0.4647650122642517,
      0.4168746769428253,
      0.07060220837593079,
      0.1863584965467453,
      -0.28503936529159546,
      0.6123359203338623
    ],
    "fc3.weight": [
      [
        -0.6364600658416748,
        -1.1935213804244995,
        -0.6812673807144165,
        0.8893810510635376,
        0.2279668152332306,
        -0.8437911868095398,
        -0.8282899856567383,
        -1.019399642944336
      ],
      [
        0.8480740189552307,
        0.9415676593780518,
        0.8270626664161682,
        -0.6642789840698242,
        -0.3039630949497223,
        0.853228747844696,
        1.0778578519821167,
        1.2289645671844482
      ]
    ],
    "fc3.bias": [
      0.348232626914978,
      -0.3305673897266388
    ]
  },
  "scaler_mean": [
    0.5181450387823976,
    0.2553665836254929
  ],
  "scaler_scale": [
    0.8945360179280724,
    0.5430594209146733
  ]
}