{
  "weights": {
    "fc1.weight": [
      [
        0.01011792104691267,
        0.289026141166687
      ],
      [
        -1.2895011901855469,
        -0.5260900259017944
      ],
      [
        -0.7692429423332214,
        0.9097767472267151
      ],
      [
        0.6314783692359924,
        0.5178430080413818
      ],
      [
        1.1589072942733765,
        -0.18175500631332397
      ],
      [
        0.04177141189575195,
        0.37789320945739746
      ],
      [
        -0.3887404501438141,
        -0.5559597611427307
      ],
      [
        -1.3490029573440552,
        -0.5318765044212341
      ],
      [
        -0.8186777234077454,
        0.6301205158233643
      ],
      [
        1.455499291419983,
        -0.473346471786499
      ],
      [
        -1.0630018711090088,
        -0.5309040546417236
      ],
      [
        0.1434035748243332,
        0.21195514500141144
      ],
      [
        -0.22728106379508972,
        0.48421719670295715
      ],
      [
        -1.3657560348510742,
        0.4635079801082611
      ],
      [
        -0.5467154383659363,
        -0.13232333958148956
      ],
      [
        0.8165002465248108,
        0.0036662009079009295
      ]
    ],
    "fc1.bias": [
      1.020792007446289,
      -0.8603525161743164,
      -0.6561204195022583,
      1.1068649291992188,
      -0.6131481528282166,
      0.6182814240455627,
      0.3919200897216797,
      0.6818406581878662,
      0.40253597497940063,
      -0.8811192512512207,
      -0.7362427115440369,
      0.18252918124198914,
      0.32169342041015625,
      -0.8605400919914246,
      -0.3155495524406433,
      0.6272940039634705
    ],
    "fc2.weight": [
      [
        0.36982250213623047,
        0.9527483582496643,
        0.3827553391456604,
        0.8845281004905701,
        -1.11636483669281,
        0.7002829909324646,
        -0.08694840222597122,
        -0.4271365702152252,
        0.15025874972343445,
        -1.0424607992172241,
        1.159767985343933,
        0.0352521575987339,
        -0.03248843923211098,
        0.7597795128822327,
        0.5954403877258301,
        0.3729166090488434
      ],
      [
        0.011603571474552155,
        -1.158911943435669,
        -0.7720050811767578,
        -0.14408014714717865,
        1.2013168334960938,
        0.13678275048732758,
        0.27010780572891235,
        0.7542294859886169,
        0.43795472383499146,
        0.9973793029785156,
        -1.1241260766983032,
        0.04293422773480415,
        0.25883588194847107,
        -0.9033481478691101,
        -0.345790833234787,
        -0.4285643696784973
      ],
      [
        -0.33407896757125854,
        -0.835033118724823,
        -0.46273353695869446,
        0.07311657071113586,
        0.7558183670043945,
        0.07578747719526291,
        0.17516416311264038,
        0.7512597441673279,
        0.3820084035396576,
        0.9260227680206299,
        -1.0206775665283203,
        0.0571802482008934,
        -0.07714129984378815,
        -0.7574160695075989,
        -0.14247271418571472,
        -0.2806163430213928
      ],
      [
        -0.4337036907672882,
        -0.9818916320800781,
        -1.2926785945892334,
        0.16964839398860931,
        1.1705280542373657,
        0.18775612115859985,
        0.2915261685848236,
        0.8936895728111267,
        0.7339285016059875,
        0.890639066696167,
        -0.9527691006660461,
        -0.09988658875226974,
        0.2908027768135071,
        -0.9708372354507446,
        -1.1367623805999756,
        -0.6296858787536621
      ],
      [
        -0.18186411261558533,
        -0.9796234369277954,
        -0.4140368700027466,
        -0.1027412936091423,
        1.0413779020309448,
        0.2325832098722458,
        0.3005601465702057,
        0.5839241147041321,
        0.17556621134281158,
        0.9659308791160583,
        -0.9086045026779175,
        0.06007327884435654,
        0.08402972668409348,
        -0.7082347869873047,
        -0.034916628152132034,
        -0.3378419280052185
      ],
      [
        0.2116219401359558,
        -0.09184810519218445,
        0.012687504291534424,
        0.04736104607582092,
        0.004054635763168335,
        -0.20043373107910156,
        -0.03799423575401306,
        -0.21006953716278076,
        -0.005592793226242065,
        0.05835968255996704,
        0.21527045965194702,
        -0.0523703396320343,
        0.006809055805206299,
        -0.06966206431388855,
        0.17916381359100342,
        -0.04321557283401489
      ],
      [
        0.3005565106868744,
        0.49752044677734375,
        0.520848274230957,
        0.7937262058258057,
        -1.1386641263961792,
        0.3643653690814972,
        -0.2579107880592346,
        -0.5065609812736511,
        0.3479233384132385,
        -0.6307222247123718,
        0.9205927848815918,
        0.11578451097011566,
        0.13440768420696259,
        0.6656014323234558,
        0.1558675765991211,
        0.09723301231861115
      ],
      [
        -0.10750558972358704,
        -0.4939340353012085,
        -0.18090875446796417,
        0.11720909923315048,
        0.6528326272964478,
        -0.1291201114654541,
        0.22056624293327332,
        0.6781948804855347,
        -0.02458813041448593,
        0.6212060451507568,
        -0.6026277542114258,
        0.035664692521095276,
        -0.08115383982658386,
        -0.6446797847747803,
        -0.14474016427993774,
        -0.11206655949354172
      ]
    ],
    "fc2.bias": [
      0.7225654125213623,
      0.1523498147726059,
      0.29106050729751587,
      0.306096613407135,
      0.3531509041786194,
      -0.23574748635292053,
      0.6987491846084595,
      0.21414747834205627
    ],
    "fc3.weight": [
      [
        0.6859503984451294,
        -0.841249942779541,
        -0.7845215797424316,
        -0.9818994402885437,
        -0.7856366038322449,
        0.28055766224861145,
        0.7444891929626465,
        -0.45831331610679626
      ],
      [
        -0.510113537311554,
        0.8953288793563843,
        0.6586255431175232,
        0.5969127416610718,
        0.8417423963546753,
        0.020869558677077293,
        -0.5400206446647644,
        0.3869089186191559
      ]
    ],
    "fc3.bias": [
      0.3844410181045532,
      0.10676310211420059
    ]
  },
  "scaler_mean": [
    0.5181450387823976,
    0.2553665836254929
  ],
  "scaler_scale": [
    0.8945360179280724,
    0.5430594209146733
  ]
}