{
  "weights": {
    "fc1.weight": [
      [
        -0.3381962478160858,
        0.3922910988330841
      ],
      [
        0.2729417681694031,
        -0.3808339536190033
      ],
      [
        -0.853248655796051,
        0.2340775728225708
      ],
      [
        1.7879273891448975,
        0.21601779758930206
      ],
      [
        -0.07323157787322998,
        -0.18061155080795288
      ],
      [
        -0.15596508979797363,
        0.6982863545417786
      ],
      [
        0.5090629458427429,
        -0.48360738158226013
      ],
      [
        -0.2669861614704132,
        0.5294110178947449
      ],
      [
        -0.3212622106075287,
        0.5350014567375183
      ],
      [
        1.2721701860427856,
        0.7590951919555664
      ],
      [
        0.30251678824424744,
        0.8663544654846191
      ],
      [
        -0.42811349034309387,
        -0.4844766855239868
      ],
      [
        -1.0416767597198486,
        0.5978326797485352
      ],
      [
        1.547234296798706,
        -0.6552808880805969
      ],
      [
        1.2651710510253906,
        0.14327795803546906
      ],
      [
        -1.8326863050460815,
        0.047186773270368576
      ]
    ],
    "fc1.bias": [
      0.9545881748199463,
      0.7240579724311829,
      1.1050773859024048,
      -1.1063059568405151,
      -0.41021719574928284,
      1.017841100692749,
      1.0090322494506836,
      0.7705508470535278,
      0.9085299372673035,
      0.8145915269851685,
      -0.1689600646495819,
      0.5035509467124939,
      0.5374106764793396,
      0.7313005924224854,
      -0.8179493546485901,
      -1.0282975435256958
    ],
    "fc2.weight": [
      [
        -0.10104629397392273,
        -0.08227947354316711,
        -0.24287846684455872,
        -0.18786776065826416,
        0.12974342703819275,
        0.1095367968082428,
        -0.22456252574920654,
        -0.017537415027618408,
        0.036100804805755615,
        -0.12216681241989136,
        0.1289999783039093,
        0.08766055107116699,
        -0.10993307828903198,
        -0.012849271297454834,
        -0.18224069476127625,
        0.028332531452178955
      ],
      [
        -0.5581064224243164,
        0.4167344272136688,
        -1.1169010400772095,
        1.091300368309021,
        -0.09710785746574402,
        -0.5357444286346436,
        0.6465199589729309,
        -0.6771352291107178,
        -1.010424256324768,
        -0.04314650595188141,
        0.18123477697372437,
        0.04638319090008736,
        0.12234789878129959,
        0.8305127620697021,
        1.1580740213394165,
        0.13361093401908875
      ],
      [
        0.26176154613494873,
        -0.32521381974220276,
        -0.18209566175937653,
        -1.268423318862915,
        -0.07137298583984375,
        0.3064754605293274,
        0.01693868637084961,
        -0.09573455899953842,
        0.1562981903553009,
        0.9273108243942261,
        0.5793770551681519,
        -0.15115582942962646,
        -0.21842922270298004,
        0.6794478297233582,
        -0.5218518376350403,
        1.5171148777008057
      ],
      [
        -0.0019704741425812244,
        -0.2020358294248581,
        -0.23625387251377106,
        -0.06591475009918213,
        0.20990979671478271,
        -0.1911383867263794,
        0.04252028465270996,
        -0.10962561517953873,
        -0.11316520720720291,
        -0.18061639368534088,
        -0.1499509960412979,
        0.04809621721506119,
        0.17231550812721252,
        -0.10946759581565857,
        0.12145435065031052,
        0.12299299985170364
      ],
      [
        0.6726052165031433,
        0.39012596011161804,
        0.5650779008865356,
        1.47898530960083,
        -0.23639622330665588,
        -0.08144107460975647,
        0.596216082572937,
        0.06049953028559685,
        0.008209256455302238,
        -0.9503579139709473,
        -0.3611174523830414,
        0.5166768431663513,
        0.8894309997558594,
        -0.12273653596639633,
        1.698535680770874,
        -1.5277793407440186
      ],
      [
        0.08570749312639236,
        -0.04068342223763466,
        -0.16205745935440063,
        -1.3870751857757568,
        -0.06089407205581665,
        0.20283517241477966,
        -0.3577066659927368,
        0.061233051121234894,
        0.3921055197715759,
        0.6649991869926453,
        0.4156967103481293,
        -0.2894522249698639,
        -0.17439216375350952,
        0.8489001989364624,
        -0.5812506675720215,
        1.3372951745986938
      ],
      [
        0.22909726202487946,
        -0.40024417638778687,
        0.3153085708618164,
        -1.1175318956375122,
        0.11975571513175964,
        0.26140648126602173,
        -0.4592832624912262,
        0.16254360973834991,
        0.34739619493484497,
        0.6004570126533508,
        0.5109944343566895,
        -0.23046815395355225,
        0.15428732335567474,
        0.7400673627853394,
        -0.10511758178472519,
        1.0487353801727295
      ],
      [
        -0.751632809638977,
        -0.04729729890823364,
        -0.5109193325042725,
        1.072152853012085,
        -0.21224939823150635,
        -0.18368779122829437,
        0.44301268458366394,
        -0.08461194485425949,
        -0.3349098861217499,
        -0.2487795054912567,
        0.11421803385019302,
        0.1325109601020813,
        -0.07677201926708221,
        0.5247691869735718,
        0.08473572880029678,
        -0.14266520738601685
      ]
    ],
    "fc2.bias": [
      -0.14720425009727478,
      -0.1747775822877884,
      -0.07028811424970627,
      -0.2474134862422943,
      0.6624037027359009,
      0.0911228209733963,
      0.14718516170978546,
      -0.10182061791419983
    ],
    "fc3.weight": [
      [
        -0.21359436213970184,
        -0.8128779530525208,
        0.3483382761478424,
        0.2358826994895935,
        -0.8622794151306152,
        1.294985055923462,
        0.5110625624656677,
        -0.3108590543270111
      ],
      [
        -0.18092824518680573,
        1.114725947380066,
        -0.6285904049873352,
        0.19213542342185974,
        0.7823070883750916,
        -0.8426569700241089,
        -0.6790302991867065,
        0.3310641348361969
      ]
    ],
    "fc3.bias": [
      -0.36574387550354004,
      0.1665741503238678
    ]
  },
  "scaler_mean": [
    0.5181450387823976,
    0.2553665836254929
  ],
  "scaler_scale": [
    0.8945360179280724,
    0.5430594209146733
  ]
}