{
  "weights": {
    "fc1.weight": [
      [
        -0.6162378787994385,
        0.8576284646987915
      ],
      [
        0.1589871048927307,
        0.08164021372795105
      ],
      [
        1.9304139614105225,
        0.2854223847389221
      ],
      [
        -0.14420799911022186,
        -0.45079129934310913
      ],
      [
        1.2496949434280396,
        0.2616599202156067
      ],
      [
        1.597997784614563,
        -0.7677968144416809
      ],
      [
        1.0993486642837524,
        -0.8783677816390991
      ],
      [
        -0.002662154147401452,
        -0.5168750882148743
      ],
      [
        -0.3507389724254608,
        0.6743841767311096
      ],
      [
        -1.5151859521865845,
        -0.6179680824279785
      ],
      [
        0.3351972997188568,
        -0.10474983602762222
      ],
      [
        -0.33668336272239685,
        0.22328504920005798
      ],
      [
        0.7989181876182556,
        0.1493818759918213
      ],
      [
        1.6812094449996948,
        0.12670880556106567
      ],
      [
        0.16637183725833893,
        0.6543600559234619
      ],
      [
        0.29546383023262024,
        -0.40912485122680664
      ]
    ],
    "fc1.bias": [
      -0.41002508997917175,
      -0.5488243699073792,
      1.2397258281707764,
      0.9473033547401428,
      -0.7577227354049683,
      -0.697560727596283,
      -0.741534411907196,
      0.9930009245872498,
      0.7586287260055542,
      -1.0656307935714722,
      -0.7371799349784851,
      1.015514612197876,
      0.5182704925537109,
      -1.1314449310302734,
      0.9035007357597351,
      1.1060847043991089
    ],
    "fc2.weight": [
      [
        1.9347548484802246,
        0.22167536616325378,
        0.6717748045921326,
        -0.3291555643081665,
        -0.05192147195339203,
        -0.48714107275009155,
        -0.9207800626754761,
        -0.6254489421844482,
        0.9203341007232666,
        1.7086390256881714,
        0.1010102927684784,
        0.19122637808322906,
        -0.2722458243370056,
        -0.5039650797843933,
        0.025131480768322945,
        -1.1140536069869995
      ],
      [
        -0.6577544808387756,
        -0.06561920046806335,
        -1.0712170600891113,
        0.3820175230503082,
        1.1969345808029175,
        0.9866073131561279,
        1.0771785974502563,
        0.13017591834068298,
        0.4274129569530487,
        -1.376142144203186,
        0.06528002768754959,
        0.47528621554374695,
        -0.2108631730079651,
        1.5546211004257202,
        0.28777015209198,
        0.17389602959156036
      ],
      [
        0.10815966129302979,
        0.21624726057052612,
        -0.1575503647327423,
        0.07201969623565674,
        0.11158400774002075,
        -0.05788281559944153,
        0.017018795013427734,
        -0.03206348419189453,
        0.18185824155807495,
        -0.10599830746650696,
        -0.17329785227775574,
        -0.1480385661125183,
        -0.14160826802253723,
        -0.039986252784729004,
        -0.12171393632888794,
        -0.1751939356327057
      ],
      [
        -0.0844578817486763,
        0.14573124051094055,
        -0.029204726219177246,
        -0.12719856202602386,
        0.11619173735380173,
        0.11658227443695068,
        0.033337607979774475,
        -0.18253204226493835,
        -0.01463349536061287,
        -0.06716424226760864,
        -0.2701713442802429,
        -0.3476729691028595,
        -0.053455084562301636,
        0.051971133798360825,
        -0.07953064143657684,
        0.0610811822116375
      ],
      [
        0.7006977796554565,
        -0.17043715715408325,
        0.531586766242981,
        0.10020807385444641,
        -0.944093644618988,
        -0.4691009223461151,
        -0.4389614760875702,
        0.10783391445875168,
        0.531644344329834,
        0.8858380913734436,
        0.1100396141409874,
        0.35084104537963867,
        0.2752203345298767,
        -0.9042564034461975,
        0.5688362121582031,
        -0.013007569126784801
      ],
      [
        -0.01477887388318777,
        0.08917221426963806,
        -0.15427613258361816,
        -0.06454135477542877,
        0.10163401812314987,
        0.013938101939857006,
        -0.011094068177044392,
        0.05884293094277382,
        0.05323450267314911,
        0.30485019087791443,
        0.019347570836544037,
        -0.15825779736042023,
        0.22888198494911194,
        -0.26918721199035645,
        -0.29829466342926025,
        -0.1420697122812271
      ],
      [
        -0.307033509016037,
        0.04285809397697449,
        -0.7704192996025085,
        0.39149773120880127,
        0.9037274718284607,
        0.6855567693710327,
        0.5610039234161377,
        0.16147544980049133,
        0.2790167033672333,
        -1.1834248304367065,
        0.17378275096416473,
        0.381613552570343,
        -0.4967016875743866,
        1.2680038213729858,
        0.04312904179096222,
        0.3935095965862274
      ],
      [
        -0.47988638281822205,
        0.1678195595741272,
        -1.0236867666244507,
        0.04903577268123627,
        0.9435735940933228,
        0.6793632507324219,
        0.7744787335395813,
        0.4878191649913788,
        0.407505601644516,
        -1.6405537128448486,
        -0.023679759353399277,
        0.5559728145599365,
        -0.428647518157959,
        0.9542362689971924,
        0.42344534397125244,
        0.3519403338432312
      ]
    ],
    "fc2.bias": [
      -0.12566706538200378,
      0.4794769585132599,
      -0.19827234745025635,
      -0.3061150014400482,
      0.3053339719772339,
      -0.19480657577514648,
      0.2838993966579437,
      0.2295161783695221
    ],
    "fc3.weight": [
      [
        1.8395757675170898,
        -1.1121660470962524,
        0.029000360518693924,
        0.09064213931560516,
        0.7328643202781677,
        -0.03107481077313423,
        -1.0108774900436401,
        -0.8139625787734985
      ],
      [
        -1.1601005792617798,
        0.7023389935493469,
        -0.18772383034229279,
        -0.24867908656597137,
        -0.8352534174919128,
        -0.007893060334026814,
        0.6127661466598511,
        0.9630471467971802
      ]
    ],
    "fc3.bias": [
      0.07487540692090988,
      -0.49728018045425415
    ]
  },
  "scaler_mean": [
    0.5181450387823976,
    0.2553665836254929
  ],
  "scaler_scale": [
    0.8945360179280724,
    0.5430594209146733
  ]
}