{
  "weights": {
    "fc1.weight": [
      [
        0.7494273781776428,
        -0.21500951051712036
      ],
      [
        1.660237193107605,
        0.4973418712615967
      ],
      [
        0.013198519125580788,
        0.6380940675735474
      ],
      [
        -0.24075628817081451,
        0.00319329253397882
      ],
      [
        0.18663080036640167,
        -0.509082019329071
      ],
      [
        -0.35754072666168213,
        0.672299325466156
      ],
      [
        0.8502979874610901,
        -0.6516351699829102
      ],
      [
        -0.21411821246147156,
        0.5845203399658203
      ],
      [
        0.10085033625364304,
        -0.6714125871658325
      ],
      [
        0.42554301023483276,
        -0.355991929769516
      ],
      [
        -0.14555591344833374,
        0.3953559994697571
      ],
      [
        -2.09476637840271,
        0.3952350616455078
      ],
      [
        -1.657778024673462,
        0.2424236238002777
      ],
      [
        -0.3320338726043701,
        -0.006261858623474836
      ],
      [
        1.2595819234848022,
        0.7023312449455261
      ],
      [
        1.2431045770645142,
        0.679847240447998
      ]
    ],
    "fc1.bias": [
      -0.46535682678222656,
      -0.839303731918335,
      0.4773423969745636,
      -0.7547195553779602,
      -0.39123839139938354,
      0.9388575553894043,
      -0.5568059682846069,
      0.695662260055542,
      1.0259534120559692,
      0.7977014780044556,
      0.6983824372291565,
      -1.0252711772918701,
      0.8276488184928894,
      0.53709477186203,
      0.7765021920204163,
      -0.5198990106582642
    ],
    "fc2.weight": [
      [
        0.7178589105606079,
        0.8495367765426636,
        0.7171024084091187,
        0.1455119252204895,
        -0.02286706678569317,
        -0.3014093339443207,
        0.7825291752815247,
        0.009333179332315922,
        0.35654762387275696,
        0.2545259892940521,
        -0.11715954542160034,
        -1.5639443397521973,
        0.7571312785148621,
        -0.01862308941781521,
        -1.2985080480575562,
        0.8970925211906433
      ],
      [
        -0.07292544841766357,
        0.11138907074928284,
        0.13349393010139465,
        0.07809478044509888,
        0.13985884189605713,
        0.2277701497077942,
        -0.014882504940032959,
        -0.20946288108825684,
        0.010305523872375488,
        0.012324154376983643,
        -0.053647518157958984,
        0.18736565113067627,
        -0.2062331736087799,
        -0.19173356890678406,
        -0.021564066410064697,
        -0.17559635639190674
      ],
      [
        0.6723959445953369,
        0.9750742316246033,
        0.4718673825263977,
        0.18712814152240753,
        0.37221023440361023,
        -0.06691444665193558,
        0.9444425702095032,
        0.1954503059387207,
        0.4135671854019165,
        0.21095311641693115,
        -0.20976853370666504,
        -1.663604497909546,
        0.5902035236358643,
        0.19712083041667938,
        -1.55849289894104,
        1.1284220218658447
      ],
      [
        1.3563454151153564,
        1.0729750394821167,
        -0.9000482559204102,
        0.08150909841060638,
        0.8061222434043884,
        -0.9094645380973816,
        1.433698296546936,
        -0.7178639769554138,
        0.29439249634742737,
        0.6495053768157959,
        -0.6822296977043152,
        -0.3713816702365875,
        0.5333889722824097,
        -0.2797028124332428,
        -0.33939865231513977,
        1.1872743368148804
      ],
      [
        0.1112319827079773,
        0.054156091064214706,
        -0.12136685848236084,
        0.1823710799217224,
        0.010567665100097656,
        0.07169196009635925,
        -0.142508864402771,
        0.125900000333786,
        -0.022388258948922157,
        -0.053416330367326736,
        -0.21121734380722046,
        -0.2571345865726471,
        -0.13463933765888214,
        0.0015563712222501636,
        -0.22697654366493225,
        -0.08570800721645355
      ],
      [
        -0.30169278383255005,
        -0.1422973871231079,
        0.15313583612442017,
        -0.16040271520614624,
        -0.240906223654747,
        -0.11431124061346054,
        0.20138537883758545,
        0.009912536479532719,
        -0.25207245349884033,
        -0.10278020054101944,
        -0.23999463021755219,
        -0.04260227829217911,
        -0.29051265120506287,
        0.10750468820333481,
        0.0026104680728167295,
        0.059441983699798584
      ],
      [
        0.1693059504032135,
        1.1443511247634888,
        0.17134854197502136,
        0.15680848062038422,
        0.4282512962818146,
        0.045788392424583435,
        0.8034750819206238,
        0.03321733698248863,
        0.43415769934654236,
        0.1804012805223465,
        -0.26949653029441833,
        -1.6957545280456543,
        0.8081967234611511,
        0.17040656507015228,
        -1.130901575088501,
        0.5440651774406433
      ],
      [
        0.08278176188468933,
        -0.03785988315939903,
        0.1603427529335022,
        0.057571589946746826,
        -0.1642867624759674,
        -0.2697187662124634,
        0.1789412498474121,
        0.11086780577898026,
        -0.16943418979644775,
        -0.24522635340690613,
        -0.23288169503211975,
        -0.0696786642074585,
        0.0633663535118103,
        -0.14780989289283752,
        -0.1254734992980957,
        0.11589987576007843
      ]
    ],
    "fc2.bias": [
      0.2478153556585312,
      -0.1937108039855957,
      0.3638315498828888,
      -0.3546980023384094,
      -0.2697373926639557,
      -0.013570602983236313,
      0.07178130000829697,
      -0.14876438677310944
    ],
    "fc3.weight": [
      [
        -0.49536842107772827,
        -0.13772442936897278,
        -0.35036611557006836,
        -1.203420639038086,
        -0.046535417437553406,
        -0.016962407156825066,
        -1.054275631904602,
        -0.013480301015079021
      ],
      [
        0.7114052176475525,
        0.033891964703798294,
        0.9902076721191406,
        0.8447812795639038,
        0.2134212702512741,
        0.21941158175468445,
        0.9063135981559753,
        -0.05892845615744591
      ]
    ],
    "fc3.bias": [
      1.5148348808288574,
      -1.41193425655365
    ]
  },
  "scaler_mean": [
    0.5181450387823976,
    0.2553665836254929
  ],
  "scaler_scale": [
    0.8945360179280724,
    0.5430594209146733
  ]
}