{
  "weights": {
    "fc1.weight": [
      [
        -0.1296631246805191,
        1.4110380411148071
      ],
      [
        0.7526841759681702,
        -0.9362923502922058
      ],
      [
        0.22907844185829163,
        1.1564816236495972
      ],
      [
        -1.1981126070022583,
        -0.3224594295024872
      ],
      [
        0.04938102141022682,
        0.15445230901241302
      ],
      [
        -0.8348413109779358,
        -0.4522011876106262
      ],
      [
        1.75631582736969,
        -0.2963208854198456
      ],
      [
        -0.3088510036468506,
        -0.541022539138794
      ],
      [
        -0.8450042009353638,
        -0.3285385072231293
      ],
      [
        0.3444412648677826,
        -0.471346378326416
      ],
      [
        0.9489051103591919,
        -0.5684727430343628
      ],
      [
        -1.051089882850647,
        -0.42345574498176575
      ],
      [
        0.17046692967414856,
        -0.5312396883964539
      ],
      [
        0.21943053603172302,
        -0.7409361004829407
      ],
      [
        -1.4987741708755493,
        -0.14349448680877686
      ],
      [
        0.7017021179199219,
        -1.0791493654251099
      ]
    ],
    "fc1.bias": [
      -0.551429808139801,
      -0.7165853977203369,
      0.02814730443060398,
      -0.7558283805847168,
      0.5893443822860718,
      0.3513821065425873,
      -0.9726539254188538,
      0.35177314281463623,
      0.4306378662586212,
      0.5915785431861877,
      0.5447277426719666,
      -0.781714677810669,
      0.6558640599250793,
      0.5593892335891724,
      -1.0334198474884033,
      -0.6635087132453918
    ],
    "fc2.weight": [
      [
        1.08659029006958,
        -0.895367443561554,
        0.1714884638786316,
        0.8839672803878784,
        0.3009914755821228,
        -0.6282626390457153,
        -1.788930058479309,
        -0.2401084154844284,
        -0.6197936534881592,
        0.5979182720184326,
        1.2080886363983154,
        0.8093427419662476,
        0.38245654106140137,
        0.3811638653278351,
        1.5291848182678223,
        -0.8084207773208618
      ],
      [
        -0.027416124939918518,
        0.3346143066883087,
        -0.2668435871601105,
        -0.21429476141929626,
        -0.12548789381980896,
        0.6791653633117676,
        1.096535086631775,
        0.36657869815826416,
        0.5535889863967896,
        0.33142349123954773,
        -0.053932808339595795,
        -0.20149606466293335,
        0.40033137798309326,
        0.1111171692609787,
        -0.4632478356361389,
        0.4785909652709961
      ],
      [
        -0.6263763308525085,
        0.5818083882331848,
        0.13391834497451782,
        -0.823062002658844,
        0.25898119807243347,
        0.8226045966148376,
        1.317703366279602,
        0.2555839717388153,
        0.9154910445213318,
        0.2427690625190735,
        -0.17863741517066956,
        -0.35798895359039307,
        -0.0034696017391979694,
        0.25201594829559326,
        -1.083064317703247,
        0.4544607400894165
      ],
      [
        -0.20432834327220917,
        0.01683986745774746,
        0.0419364832341671,
        -0.24589064717292786,
        -0.21012067794799805,
        -0.02236032299697399,
        -0.11358373612165451,
        -0.34239402413368225,
        -0.3364267945289612,
        -0.3253152370452881,
        0.051648225635290146,
        -0.0810142308473587,
        -0.0675077810883522,
        0.10561323165893555,
        -0.13808083534240723,
        -0.11617591232061386
      ],
      [
        0.9027487635612488,
        -0.743995726108551,
        0.33522793650627136,
        0.740630567073822,
        0.32856985926628113,
        -0.6030955910682678,
        -1.634036660194397,
        -0.18453435599803925,
        -0.9333903789520264,
        0.6863083839416504,
        0.6331236958503723,
        1.0150129795074463,
        0.22737279534339905,
        0.4814379811286926,
        1.4927438497543335,
        -0.9185784459114075
      ],
      [
        -0.29854434728622437,
        0.6022583842277527,
        0.023993831127882004,
        -1.1126190423965454,
        0.2791939675807953,
        0.9728255867958069,
        1.6854238510131836,
        0.1845526397228241,
        1.215741515159607,
        0.00014541445125360042,
        -0.42279234528541565,
        -0.7326256036758423,
        0.15530966222286224,
        -0.01379422191530466,
        -1.4640755653381348,
        0.8078912496566772
      ],
      [
        1.280051827430725,
        -0.040640272200107574,
        0.43444857001304626,
        0.9009799361228943,
        0.06480869650840759,
        0.2034195065498352,
        -0.3893200159072876,
        -0.3349425494670868,
        0.5959882140159607,
        -0.2975023686885834,
        -0.15972492098808289,
        1.3057143688201904,
        -0.6057122349739075,
        -0.18870705366134644,
        1.562517523765564,
        0.021369289606809616
      ],
      [
        -0.011322882026433945,
        -0.3696924149990082,
        -0.10118485987186432,
        -0.30836722254753113,
        -0.0061521390452980995,
        -0.1307971328496933,
        -0.03639225289225578,
        -0.10133827477693558,
        -0.03184259310364723,
        0.03749429062008858,
        -0.25823259353637695,
        0.02185460552573204,
        0.04120407998561859,
        0.047985661774873734,
        0.18845757842063904,
        0.09883725643157959
      ]
    ],
    "fc2.bias": [
      0.20611202716827393,
      0.009024315513670444,
      0.018998535349965096,
      -0.08873043954372406,
      0.3776397705078125,
      -0.03485726937651634,
      0.06995335221290588,
      -0.3318188190460205
    ],
    "fc3.weight": [
      [
        1.051837682723999,
        -0.5673771500587463,
        -0.47696879506111145,
        0.15232037007808685,
        0.5469167232513428,
        -0.7381211519241333,
        0.6303886771202087,
        -0.10117907077074051
      ],
      [
        -0.971825361251831,
        0.5388556122779846,
        0.899039089679718,
        0.05772692710161209,
        -0.774176836013794,
        0.9477770924568176,
        -0.9760202169418335,
        -0.016996582970023155
      ]
    ],
    "fc3.bias": [
      0.612295389175415,
      -0.1823464184999466
    ]
  },
  "scaler_mean": [
    0.5181450387823976,
    0.2553665836254929
  ],
  "scaler_scale": [
    0.8945360179280724,
    0.5430594209146733
  ]
}