{
  "layers": [
    {
      "type": "conv",
      "W": [
        [
          [
            [
              0.025417394936084747,
              0.10756827890872955,
              -0.26513466238975525,
              -0.33598512411117554,
              -0.16019955277442932
            ],
            [
              0.1547389179468155,
              0.017595818266272545,
              -0.033910833299160004,
              -0.31058087944984436,
              -0.12302442640066147
            ],
            [
              0.13190600275993347,
              0.10283751785755157,
              -0.2689303159713745,
              -0.31261906027793884,
              -0.21880924701690674
            ],
            [
              0.18922695517539978,
              0.2758704423904419,
              0.23963484168052673,
              -0.06178179383277893,
              -0.055714476853609085
            ],
            [
              0.19139958918094635,
              0.3569621741771698,
              0.19286809861660004,
              0.3818608820438385,
              0.16255159676074982
            ]
          ]
        ],
        [
          [
            [
              0.09265673905611038,
              0.30939731001853943,
              -0.05833759531378746,
              -0.15060386061668396,
              -0.23326776921749115
            ],
            [
              0.030645271763205528,
              0.3661344647407532,
              0.03659789636731148,
              -0.16177231073379517,
              -0.4173424243927002
            ],
            [
              -0.02470850758254528,
              0.12293650209903717,
              0.29376766085624695,
              -0.07908539474010468,
              -0.18084490299224854
            ],
            [
              0.10923183709383011,
              0.08500377088785172,
              0.1825583428144455,
              -0.24847263097763062,
              -0.27591848373413086
            ],
            [
              -0.03851347789168358,
              0.26531538367271423,
              0.24382668733596802,
              -0.0688692182302475,
              -0.05408821627497673
            ]
          ]
        ],
        [
          [
            [
              0.1347825676202774,
              0.27044492959976196,
              0.14274774491786957,
              0.019912347197532654,
              0.08636682480573654
            ],
            [
              -0.11349326372146606,
              0.10993778705596924,
              -0.08563724160194397,
              -0.15102511644363403,
              -0.15675117075443268
            ],
            [
              0.03212610259652138,
              0.11393478512763977,
              -0.03824952617287636,
              0.10035398602485657,
              0.1166328489780426
            ],
            [
              -0.13391093909740448,
              -0.0013810773380100727,
              0.08625686168670654,
              0.2019737958908081,
              0.25725457072257996
            ],
            [
              -0.27531084418296814,
              -0.09944109618663788,
              0.08723409473896027,
              0.23989459872245789,
              0.21312792599201202
            ]
          ]
        ],
        [
          [
            [
              0.20707693696022034,
              0.13264575600624084,
              -0.0283054132014513,
              0.11581993848085403,
              -0.14385521411895752
            ],
            [
              -0.110988549888134,
              0.2902076244354248,
              0.261185884475708,
              -0.16883312165737152,
              -0.08818319439888
            ],
            [
              0.06980238854885101,
              0.12730781733989716,
              0.01586608588695526,
              0.01792607642710209,
              -0.3487575054168701
            ],
            [
              0.12900123000144958,
              0.19581706821918488,
              0.18120618164539337,
              -0.04262150079011917,
              -0.3984501361846924
            ],
            [
              -0.05051407963037491,
              0.19255267083644867,
              0.06262368708848953,
              -0.25575581192970276,
              -0.27699366211891174
            ]
          ]
        ],
        [
          [
            [
              0.29569995403289795,
              0.24036574363708496,
              -0.09028207510709763,
              -0.19536679983139038,
              -0.31261834502220154
            ],
            [
              -0.006223214324563742,
              -0.18586105108261108,
              -0.24337665736675262,
              -0.06118347868323326,
              0.08367899060249329
            ],
            [
              -0.2161574512720108,
              0.10991412401199341,
              -0.027877166867256165,
              0.3359346389770508,
              0.29157182574272156
            ],
            [
              -0.19854503870010376,
              0.0639035627245903,
              0.16159756481647491,
              0.15819700062274933,
              0.09260169416666031
            ],
            [
              0.07765115797519684,
              0.0844767615199089,
              -0.08239851146936417,
              0.03798181191086769,
              -0.3215043842792511
            ]
          ]
        ],
        [
          [
            [
              -0.215962216258049,
              -0.25516194105148315,
              -0.2921575605869293,
              -0.24060387909412384,
              -0.18999287486076355
            ],
            [
              -0.07991810888051987,
              -0.06704287976026535,
              -0.1647876799106598,
              0.05604897812008858,
              0.24470297992229462
            ],
            [
              0.06030353531241417,
              0.08489198237657547,
              0.12427633255720139,
              0.23161284625530243,
              0.25845658779144287
            ],
            [
              0.3348534405231476,
              0.3098452687263489,
              0.3512434661388397,
              0.1209864616394043,
              -0.12677842378616333
            ],
            [
              0.011296193115413189,
              0.2802010476589203,
              0.08132879436016083,
              -0.08772674947977066,
              -0.1950840801000595
            ]
          ]
        ],
        [
          [
            [
              -0.051662106066942215,
              0.07636257261037827,
              0.24274417757987976,
              0.34124332666397095,
              0.3132596015930176
            ],
            [
              -0.46015170216560364,
              -0.18163423240184784,
              -0.3412274420261383,
              -0.09717567265033722,
              -0.07999688386917114
            ],
            [
              -0.14044189453125,
              -0.3399055302143097,
              -0.5632642507553101,
              -0.4787243604660034,
              -0.2312633991241455
            ],
            [
              0.16453126072883606,
              0.041033994406461716,
              0.08085790276527405,
              -0.18962706625461578,
              -0.044586438685655594
            ],
            [
              0.3603303134441376,
              0.12593646347522736,
              0.3105783760547638,
              0.2162797451019287,
              -0.031163526698946953
            ]
          ]
        ],
        [
          [
            [
              0.1774204671382904,
              -0.0020189322531223297,
              -0.03719472512602806,
              0.2345648556947708,
              -0.06471804529428482
            ],
            [
              0.0979178324341774,
              0.09237314015626907,
              0.2902810275554657,
              0.2086455523967743,
              0.2536095380783081
            ],
            [
              0.19067274034023285,
              0.10722073912620544,
              0.05957815796136856,
              -0.0673709586262703,
              0.218649759888649
            ],
            [
              0.201866015791893,
              0.1183219626545906,
              -0.21970303356647491,
              -0.09020675718784332,
              -0.2529872953891754
            ],
            [
              -0.1498716026544571,
              -0.3484586775302887,
              -0.20883458852767944,
              -0.36576324701309204,
              -0.1535295695066452
            ]
          ]
        ],
        [
          [
            [
              0.09295226633548737,
              0.1982502043247223,
              -0.16306254267692566,
              -0.27159541845321655,
              -0.2835705280303955
            ],
            [
              0.24405193328857422,
              0.07326220721006393,
              0.27686285972595215,
              0.05290971323847771,
              -0.02058619074523449
            ],
            [
              0.07933603227138519,
              0.08426698297262192,
              0.17079786956310272,
              0.02969760075211525,
              0.0344683937728405
            ],
            [
              0.04469170793890953,
              -0.0806807279586792,
              -0.032369207590818405,
              0.2183092087507248,
              -0.13638734817504883
            ],
            [
              -0.035991910845041275,
              0.2110789567232132,
              0.08553405851125717,
              0.05561434477567673,
              -0.1497848629951477
            ]
          ]
        ],
        [
          [
            [
              0.1470295935869217,
              -0.14694829285144806,
              -0.055699072778224945,
              -0.03627527877688408,
              -0.028560159727931023
            ],
            [
              0.0646924078464508,
              0.21409200131893158,
              0.076554074883461,
              0.3049028217792511,
              0.20774663984775543
            ],
            [
              -0.10678553581237793,
              0.12371066957712173,
              -0.11591803282499313,
              -0.012490689754486084,
              0.14811524748802185
            ],
            [
              0.017345046624541283,
              0.11898843199014664,
              -0.10399933904409409,
              -0.02897588722407818,
              0.1654616892337799
            ],
            [
              -0.321265310049057,
              0.03148035332560539,
              -0.2695353925228119,
              -0.09175070375204086,
              -0.03288690000772476
            ]
          ]
        ],
        [
          [
            [
              -0.0077193803153932095,
              0.15398557484149933,
              0.24146448075771332,
              -0.17647643387317657,
              -0.38951143622398376
            ],
            [
              -0.051790978759527206,
              -0.09481632709503174,
              0.2461550086736679,
              -0.07084935903549194,
              -0.28276950120925903
            ],
            [
              -0.1377227008342743,
              0.16514256596565247,
              0.335789293050766,
              0.37133461236953735,
              0.1506624072790146
            ],
            [
              -0.11999495327472687,
              -0.10088741034269333,
              0.12889911234378815,
              0.3287971615791321,
              0.16773933172225952
            ],
            [
              -0.21433742344379425,
              -0.25178128480911255,
              -0.317918986082077,
              0.05209090933203697,
              -0.02666640095412731
            ]
          ]
        ],
        [
          [
            [
              -0.3472350239753723,
              -0.015451009385287762,
              -0.27328598499298096,
              -0.004891286604106426,
              0.17267882823944092
            ],
            [
              -0.16254520416259766,
              -0.2511570155620575,
              -0.14707045257091522,
              0.31196287274360657,
              0.17272183299064636
            ],
            [
              0.12080810219049454,
              -0.04394518584012985,
              0.22765082120895386,
              0.15567120909690857,
              0.07574551552534103
            ],
            [
              -0.14333948493003845,
              0.11449842154979706,
              0.17097775638103485,
              0.08506934344768524,
              -0.05756999924778938
            ],
            [
              -0.07749523967504501,
              0.2291150540113449,
              -0.06477542966604233,
              0.115578792989254,
              -0.10775777697563171
            ]
          ]
        ],
        [
          [
            [
              -0.2830655574798584,
              -0.21314719319343567,
              -0.23077328503131866,
              0.08277527987957001,
              0.1566167026758194
            ],
            [
              -0.41369009017944336,
              -0.18740159273147583,
              0.050325408577919006,
              0.19221465289592743,
              0.12135431915521622
            ],
            [
              -0.3404460549354553,
              -0.07627721130847931,
              0.1306004822254181,
              0.07393944263458252,
              0.1932288408279419
            ],
            [
              0.058520782738924026,
              -0.06525491923093796,
              0.06978830695152283,
              0.19500181078910828,
              0.12028077989816666
            ],
            [
              -0.025925412774086,
              0.06158405542373657,
              -0.07399283349514008,
              0.11847288906574249,
              0.2337733656167984
            ]
          ]
        ],
        [
          [
            [
              0.1526595801115036,
              0.16453200578689575,
              0.08477166295051575,
              0.13323980569839478,
              -0.10116472095251083
            ],
            [
              -0.2441411316394806,
              -0.13924287259578705,
              0.27694353461265564,
              0.16883061826229095,
              -0.14296120405197144
            ],
            [
              0.034380245953798294,
              0.18869899213314056,
              0.2879353165626526,
              0.22344766557216644,
              0.16222387552261353
            ],
            [
              -0.07955430448055267,
              -0.026905139908194542,
              0.2176586091518402,
              0.14954741299152374,
              -0.09778579324483871
            ],
            [
              0.16371244192123413,
              0.12170497328042984,
              0.13632644712924957,
              -0.06468753516674042,
              0.06379228830337524
            ]
          ]
        ],
        [
          [
            [
              0.03713569417595863,
              0.30143409967422485,
              0.15172676742076874,
              0.23756280541419983,
              0.1226210668683052
            ],
            [
              0.17027409374713898,
              0.05522909387946129,
              0.28269875049591064,
              0.05324547737836838,
              0.2062680572271347
            ],
            [
              -0.17371149361133575,
              -0.24596631526947021,
              -0.06507565826177597,
              0.31117576360702515,
              0.29352763295173645
            ],
            [
              0.08028877526521683,
              0.005694307386875153,
              -0.26858222484588623,
              -0.21663056313991547,
              0.01967892050743103
            ],
            [
              -0.29464802145957947,
              -0.09554210305213928,
              -0.3325777053833008,
              -0.3028697371482849,
              -0.22353696823120117
            ]
          ]
        ],
        [
          [
            [
              -0.132334366440773,
              0.15889936685562134,
              0.17791658639907837,
              0.18917430937290192,
              0.22558464109897614
            ],
            [
              0.19352011382579803,
              0.006343346554785967,
              0.14163491129875183,
              0.2502182722091675,
              0.13998101651668549
            ],
            [
              0.26437556743621826,
              0.20953726768493652,
              0.18082821369171143,
              -0.029577884823083878,
              0.1453978419303894
            ],
            [
              0.061690498143434525,
              0.012752216309309006,
              -0.12968787550926208,
              -0.18641823530197144,
              -0.21268053352832794
            ],
            [
              0.13179761171340942,
              0.10356596112251282,
              -0.11762434244155884,
              -0.23008263111114502,
              0.036896925419569016
            ]
          ]
        ]
      ],
      "b": [
        0.06581604480743408,
        0.029887676239013672,
        -0.06384773552417755,
        0.16536597907543182,
        0.04302385821938515,
        -0.006303439382463694,
        0.18067550659179688,
        0.1042637974023819,
        -0.002348349429666996,
        0.03701348602771759,
        -0.001780010061338544,
        0.011347257532179356,
        0.11515259742736816,
        -0.013169404119253159,
        0.007873832248151302,
        -0.003465411951765418
      ],
      "stride": [
        1,
        1
      ],
      "padding": [
        2,
        2
      ],
      "kernel_size": [
        5,
        5
      ]
    },
    {
      "type": "conv",
      "W": [
        [
          [
            [
              -0.12092195451259613,
              0.041580747812986374,
              0.005871291272342205,
              0.04774201288819313,
              0.046065233647823334
            ],
            [
              -0.13715878129005432,
              0.13586242496967316,
              0.13610894978046417,
              0.0810573399066925,
              -0.04613674804568291
            ],
            [
              -0.11337457597255707,
              0.05773945897817612,
              0.09569934755563736,
              0.15239226818084717,
              0.0964396744966507
            ],
            [
              -0.07501324266195297,
              -0.011068680323660374,
              -0.03198021650314331,
              -0.010449567809700966,
              0.07902228087186813
            ],
            [
              -0.10730006545782089,
              -0.15170687437057495,
              -0.10899428278207779,
              -0.14479324221611023,
              -0.12961946427822113
            ]
          ],
          [
            [
              -0.012706193141639233,
              0.11713988333940506,
              -0.03591389209032059,
              0.006677489262074232,
              0.1669793576002121
            ],
            [
              0.013714902102947235,
              0.19858746230602264,
              0.04402942955493927,
              -0.0176621712744236,
              0.12478893995285034
            ],
            [
              0.03130963817238808,
              0.17490456998348236,
              0.07233381271362305,
              -0.019214145839214325,
              0.07654416561126709
            ],
            [
              -0.10692077875137329,
              0.012151667848229408,
              -0.010308236815035343,
              -0.003270933870226145,
              -0.09090783447027206
            ],
            [
              -0.22965940833091736,
              -0.10669800639152527,
              -0.10120874643325806,
              -0.012900604866445065,
              -0.06500844657421112
            ]
          ],
          [
            [
              0.051548346877098083,
              -0.047620974481105804,
              -0.12659963965415955,
              -0.05047090724110603,
              0.027469836175441742
            ],
            [
              0.09019208699464798,
              0.09607595205307007,
              0.01584344170987606,
              -0.09967129677534103,
              -0.15740080177783966
            ],
            [
              -0.017647815868258476,
              0.10062319040298462,
              0.04262464493513107,
              0.02840784750878811,
              -0.06148957088589668
            ],
            [
              -0.039245348423719406,
              -0.026105009019374847,
              0.06210082396864891,
              0.03630185127258301,
              0.1110546663403511
            ],
            [
              0.008982595056295395,
              0.030444057658314705,
              0.011634846217930317,
              -0.020285414531826973,
              0.017267214134335518
            ]
          ],
          [
            [
              0.009190034121274948,
              0.12728524208068848,
              -0.06279174238443375,
              0.01620466634631157,
              -0.013583815656602383
            ],
            [
              -0.06424031406641006,
              0.06269888579845428,
              0.05125890672206879,
              0.015533288940787315,
              -0.07895527780056
            ],
            [
              -0.05572999641299248,
              0.03479090332984924,
              0.03932475298643112,
              0.018824679777026176,
              -0.08727510273456573
            ],
            [
              -0.12432228028774261,
              -0.01534025277942419,
              -0.018027327954769135,
              -0.015497636049985886,
              -0.12412918359041214
            ],
            [
              -0.09333668649196625,
              -0.05333325266838074,
              -0.016847379505634308,
              -0.004287663381546736,
              -0.06176105886697769
            ]
          ],
          [
            [
              -0.00804065354168415,
              -0.02278990112245083,
              -0.004876845516264439,
              0.046279583126306534,
              0.10631968826055527
            ],
            [
              -0.011886508204042912,
              -0.031054986640810966,
              -0.03541092202067375,
              -0.09735038876533508,
              -0.1318114846944809
            ],
            [
              0.008092841133475304,
              0.046980585902929306,
              0.05365624651312828,
              -0.14205993711948395,
              -0.12351025640964508
            ],
            [
              0.0143392039462924,
              -0.013465465046465397,
              0.012360765598714352,
              0.002162700751796365,
              0.028880702331662178
            ],
            [
              -0.022124672308564186,
              -0.04864966869354248,
              0.010851114057004452,
              0.058700643479824066,
              0.08511243760585785
            ]
          ],
          [
            [
              0.01865794137120247,
              0.025728575885295868,
              -0.0629279613494873,
              -0.08323178440332413,
              0.055421244353055954
            ],
            [
              -0.11994367837905884,
              -0.05604563280940056,
              -0.020502140745520592,
              0.021549880504608154,
              -0.1061454564332962
            ],
            [
              -0.2343779355287552,
              -0.04959028959274292,
              -0.0002608432259876281,
              0.05452446639537811,
              -0.050001755356788635
            ],
            [
              -0.14019529521465302,
              -0.08649129420518875,
              0.015448003076016903,
              0.03324780985713005,
              -0.005489760544151068
            ],
            [
              -0.0697447881102562,
              -0.03756551072001457,
              0.032828930765390396,
              -0.015295427292585373,
              0.08379033207893372
            ]
          ],
          [
            [
              -0.19093647599220276,
              -0.18671377003192902,
              -0.07098140567541122,
              -0.04063297063112259,
              -0.017055269330739975
            ],
            [
              -0.19555971026420593,
              -0.13663779199123383,
              0.00872394535690546,
              0.11105038225650787,
              0.12042206525802612
            ],
            [
              -0.11653748899698257,
              -0.14279043674468994,
              0.02647782489657402,
              0.1650753766298294,
              0.18579170107841492
            ],
            [
              -0.030994350090622902,
              0.03242034837603569,
              -0.005320318974554539,
              0.00043200343498028815,
              0.020798606798052788
            ],
            [
              -0.03019796684384346,
              0.055600520223379135,
              0.07547885179519653,
              0.044649481773376465,
              0.045688387006521225
            ]
          ],
          [
            [
              -0.18194153904914856,
              -0.02744111977517605,
              0.10372848808765411,
              -0.02698419988155365,
              -0.0763060450553894
            ],
            [
              -0.13732099533081055,
              -0.016318725422024727,
              0.016495777294039726,
              -0.012835633009672165,
              -0.0515468455851078
            ],
            [
              -0.0412127785384655,
              -0.06514938175678253,
              0.0021830180194228888,
              -0.07874515652656555,
              -0.12212113291025162
            ],
            [
              -0.011917940340936184,
              0.02009025774896145,
              0.017626168206334114,
              0.03333902359008789,
              -0.03323550149798393
            ],
            [
              -0.10969884693622589,
              0.03475678712129593,
              0.01102950144559145,
              0.08548018336296082,
              0.13952717185020447
            ]
          ],
          [
            [
              -0.01452719047665596,
              0.02215694449841976,
              0.023475857451558113,
              -0.0004948027199134231,
              -0.09517952799797058
            ],
            [
              -0.01850224658846855,
              0.048702385276556015,
              -0.025192366912961006,
              -0.04874248430132866,
              -0.09787514060735703
            ],
            [
              -0.015681322664022446,
              0.05466873198747635,
              0.008408458903431892,
              0.009473921731114388,
              -0.05296214669942856
            ],
            [
              -0.0696762353181839,
              0.03482748195528984,
              0.08605916798114777,
              0.07909353077411652,
              -0.00904734805226326
            ],
            [
              -0.10573849081993103,
              -0.07335542887449265,
              -0.02695968933403492,
              0.02072446420788765,
              -0.03775659576058388
            ]
          ],
          [
            [
              -0.007770877331495285,
              0.0060882712714374065,
              -0.014411400072276592,
              -0.08450997620820999,
              0.04310290142893791
            ],
            [
              0.0075569855980575085,
              0.033436037600040436,
              -0.07030480355024338,
              -0.06636066734790802,
              0.07341654598712921
            ],
            [
              0.02691938541829586,
              0.09285420179367065,
              0.014569411985576153,
              -0.06632451713085175,
              -0.0943598598241806
            ],
            [
              -0.008257618173956871,
              0.08464290201663971,
              0.05026985704898834,
              0.1095343828201294,
              0.03246721252799034
            ],
            [
              -0.05894596502184868,
              0.03311575576663017,
              -0.00769144156947732,
              0.07780642062425613,
              0.15958088636398315
            ]
          ],
          [
            [
              0.020827719941735268,
              0.0033660740591585636,
              -0.13909175992012024,
              0.08320388197898865,
              0.04611598700284958
            ],
            [
              0.07889213413000107,
              0.1089751347899437,
              -0.002603867556899786,
              0.004676199983805418,
              0.06098571792244911
            ],
            [
              0.08921965956687927,
              0.21543189883232117,
              0.18762731552124023,
              0.05770181864500046,
              -0.042407453060150146
            ],
            [
              -0.030604086816310883,
              0.11091401427984238,
              0.12279222905635834,
              0.14594577252864838,
              0.16636790335178375
            ],
            [
              -0.026574956253170967,
              -0.06854023784399033,
              0.035772550851106644,
              0.06332296878099442,
              0.12237270921468735
            ]
          ],
          [
            [
              0.03407591953873634,
              0.08964435756206512,
              -0.006494367029517889,
              -0.05907876789569855,
              0.005119945853948593
            ],
            [
              0.0883551612496376,
              -0.06894759088754654,
              -0.0778086930513382,
              -0.03794216737151146,
              -0.059798698872327805
            ],
            [
              -0.0005146562471054494,
              -0.13159875571727753,
              -0.02897435426712036,
              -0.04466449096798897,
              -0.08911450952291489
            ],
            [
              -0.000586147652938962,
              0.004676439333707094,
              -0.08635368198156357,
              -0.011006020940840244,
              -0.031505074352025986
            ],
            [
              -0.008341776207089424,
              -0.04443277418613434,
              -0.06562071293592453,
              0.010932670906186104,
              -0.05158389359712601
            ]
          ],
          [
            [
              0.05822285637259483,
              0.035553134977817535,
              0.008398103527724743,
              -0.004327178932726383,
              0.11951803416013718
            ],
            [
              0.04599570855498314,
              0.009825612418353558,
              -0.08725586533546448,
              -0.09763052314519882,
              -0.005446570925414562
            ],
            [
              0.11154723912477493,
              -0.024269456043839455,
              -0.051475640386343,
              -0.08220207691192627,
              -0.04367152601480484
            ],
            [
              0.07554832845926285,
              -0.008602604269981384,
              -0.08566366881132126,
              -0.13163335621356964,
              0.01144764106720686
            ],
            [
              0.009569108486175537,
              -0.055449601262807846,
              -0.05736640840768814,
              -0.1285385638475418,
              -0.09204055368900299
            ]
          ],
          [
            [
              0.03314192220568657,
              0.06752774119377136,
              -0.024237198755145073,
              -0.04331536963582039,
              -0.018650777637958527
            ],
            [
              0.060601912438869476,
              -0.007970044389367104,
              -0.023353228345513344,
              -0.07124408334493637,
              -0.09642048925161362
            ],
            [
              0.006405748426914215,
              0.06360327452421188,
              0.06116340681910515,
              0.0032416232861578465,
              -0.05766424909234047
            ],
            [
              -0.043564196676015854,
              0.07285773009061813,
              0.025348765775561333,
              -0.007771111559122801,
              0.03816317394375801
            ],
            [
              0.012191901914775372,
              -0.04984143003821373,
              0.06375106424093246,
              0.015863364562392235,
              -0.021094562485814095
            ]
          ],
          [
            [
              -0.23775239288806915,
              -0.11780767142772675,
              0.006192072760313749,
              -0.013096374459564686,
              0.018201574683189392
            ],
            [
              -0.15144090354442596,
              -0.15768110752105713,
              -0.06973040848970413,
              0.04283573105931282,
              0.15046726167201996
            ],
            [
              0.1163843497633934,
              0.010540076531469822,
              -0.01642204076051712,
              -0.13251568377017975,
              -0.023168927058577538
            ],
            [
              0.032815106213092804,
              0.09623689949512482,
              0.15423230826854706,
              0.08985377103090286,
              0.06229308247566223
            ],
            [
              -0.1053098738193512,
              -0.05160035565495491,
              0.08401831239461899,
              0.17081035673618317,
              0.19996939599514008
            ]
          ],
          [
            [
              -0.024515684694051743,
              0.0964546948671341,
              0.06219351291656494,
              -0.08388566970825195,
              -0.09762703627347946
            ],
            [
              -0.03421711176633835,
              -0.025397395715117455,
              0.0030403975397348404,
              -0.07598552852869034,
              -0.011479254812002182
            ],
            [
              -0.04251287505030632,
              0.016601145267486572,
              -0.04567097872495651,
              -0.038931071758270264,
              -0.016978232190012932
            ],
            [
              0.025060968473553658,
              -0.013101921416819096,
              0.035903338342905045,
              0.03258959576487541,
              -0.06168228015303612
            ],
            [
              -0.059326838701963425,
              0.02109597809612751,
              -0.01712467521429062,
              0.041070010513067245,
              0.07139508426189423
            ]
          ]
        ],
        [
          [
            [
              -0.12977750599384308,
              0.023140015080571175,
              0.1124509647488594,
              0.14325864613056183,
              0.05687197297811508
            ],
            [
              -0.03013378381729126,
              -0.10479454696178436,
              -0.013584439642727375,
              0.11845143139362335,
              0.05104968324303627
            ],
            [
              0.007354626897722483,
              -0.1657407134771347,
              -0.09877906739711761,
              0.11843819171190262,
              0.12985695898532867
            ],
            [
              0.0368814691901207,
              -0.10819530487060547,
              -0.1446513533592224,
              0.10457181185483932,
              0.12766405940055847
            ],
            [
              0.04621178284287453,
              -0.14737103879451752,
              -0.09457170963287354,
              0.18269236385822296,
              0.09292403608560562
            ]
          ],
          [
            [
              -0.24567082524299622,
              -0.1450807750225067,
              0.1461794227361679,
              0.17395788431167603,
              -0.02685837261378765
            ],
            [
              -0.19776640832424164,
              -0.13694818317890167,
              0.17521998286247253,
              0.3043493628501892,
              0.03887953981757164
            ],
            [
              -0.0038212330546230078,
              -0.2121729999780655,
              0.12178182601928711,
              0.35469624400138855,
              0.01874827779829502
            ],
            [
              0.10990287363529205,
              -0.18643014132976532,
              0.12348128110170364,
              0.25223204493522644,
              0.10454212129116058
            ],
            [
              0.10812994837760925,
              -0.07943421602249146,
              0.08271116763353348,
              0.3243681490421295,
              0.0016678848769515753
            ]
          ],
          [
            [
              -0.0073537081480026245,
              0.055634453892707825,
              0.06047489866614342,
              -0.02113308012485504,
              -0.09641483426094055
            ],
            [
              -0.07620159536600113,
              -0.03002653457224369,
              0.10577873885631561,
              0.014568091370165348,
              -0.09632708132266998
            ],
            [
              -0.07145212590694427,
              0.03322860971093178,
              0.07604213804006577,
              -0.021835211664438248,
              -0.08869145065546036
            ],
            [
              -0.11528981477022171,
              -0.010205336846411228,
              0.1317979395389557,
              0.0023167948238551617,
              -0.023547664284706116
            ],
            [
              -0.02398294396698475,
              -0.011672458611428738,
              0.07874426245689392,
              0.08018054813146591,
              -0.040444571524858475
            ]
          ],
          [
            [
              -0.08536972105503082,
              -0.06723885983228683,
              0.0874297171831131,
              0.050204433500766754,
              0.018327318131923676
            ],
            [
              -0.1336383819580078,
              -0.08636733144521713,
              0.09423618018627167,
              0.1996651291847229,
              0.08854982256889343
            ],
            [
              0.04911990091204643,
              -0.024578701704740524,
              0.08150803297758102,
              0.2313498854637146,
              0.03794509172439575
            ],
            [
              0.020229503512382507,
              -0.053147487342357635,
              0.0605132058262825,
              0.16171063482761383,
              0.043617136776447296
            ],
            [
              0.0756540298461914,
              -0.009136799722909927,
              0.04236983507871628,
              0.19219179451465607,
              0.008529482409358025
            ]
          ],
          [
            [
              -0.07494290173053741,
              -0.013194755651056767,
              0.020043587312102318,
              -0.04433944821357727,
              -0.0730656236410141
            ],
            [
              -0.03883649408817291,
              -0.0029259587172418833,
              0.10377820581197739,
              0.04517673701047897,
              -0.1368488073348999
            ],
            [
              0.008806293830275536,
              -0.14230671525001526,
              0.08215630054473877,
              -0.015552205964922905,
              -0.05107082054018974
            ],
            [
              -0.11458437889814377,
              -0.08419065177440643,
              0.04920213297009468,
              -0.03447863832116127,
              0.009907222352921963
            ],
            [
              0.02976667694747448,
              -0.0765104740858078,
              0.012311005033552647,
              -0.06067732349038124,
              0.03395236283540726
            ]
          ],
          [
            [
              -0.15226462483406067,
              -0.10234121978282928,
              -0.005924466531723738,
              0.017283406108617783,
              -0.04849362000823021
            ],
            [
              -0.057004209607839584,
              -0.10762593895196915,
              -0.034093376249074936,
              0.06246296688914299,
              -0.022383324801921844
            ],
            [
              0.05942123755812645,
              -0.17533010244369507,
              -0.11320553719997406,
              0.050074994564056396,
              -0.059829022735357285
            ],
            [
              0.020208153873682022,
              -0.137784942984581,
              -0.016026027500629425,
              0.011980194598436356,
              -0.141088604927063
            ],
            [
              0.060450974851846695,
              -0.010522554628551006,
              -0.07985758781433105,
              -0.05859825015068054,
              -0.04051422327756882
            ]
          ],
          [
            [
              0.006547014228999615,
              -0.08087930828332901,
              0.057508837431669235,
              0.16349631547927856,
              0.08862295001745224
            ],
            [
              0.0964769497513771,
              0.07195372134447098,
              -0.008262960240244865,
              0.022136902436614037,
              0.07283914089202881
            ],
            [
              0.05045383796095848,
              0.05491442233324051,
              -0.140193372964859,
              -0.066472627222538,
              -0.02769307978451252
            ],
            [
              -0.0038140302058309317,
              -0.032531291246414185,
              -0.16666561365127563,
              -0.11324873566627502,
              -0.06626100093126297
            ],
            [
              -0.009079026989638805,
              -0.058725375682115555,
              -0.20246239006519318,
              -0.13067764043807983,
              0.0411597415804863
            ]
          ],
          [
            [
              -0.009758185595273972,
              -0.061939842998981476,
              -0.08127909153699875,
              0.016995396465063095,
              -0.01953229308128357
            ],
            [
              -0.004773051477968693,
              -0.008998914621770382,
              -0.05375963822007179,
              -0.030066518113017082,
              0.00844273529946804
            ],
            [
              -0.05179716274142265,
              -0.059996236115694046,
              -0.12691472470760345,
              -0.008137368597090244,
              0.039817940443754196
            ],
            [
              -0.00328242895193398,
              -0.13931795954704285,
              -0.09213549643754959,
              -0.010206473991274834,
              0.0181592870503664
            ],
            [
              0.015585162676870823,
              -0.06623832881450653,
              -0.12416211515665054,
              -0.03670888766646385,
              -0.0007356905261985958
            ]
          ],
          [
            [
              -0.12018700689077377,
              -0.0792752131819725,
              0.0682283341884613,
              0.09661871194839478,
              0.004888766910880804
            ],
            [
              -0.11410780996084213,
              -0.06305386871099472,
              0.15369737148284912,
              0.15871699154376984,
              -0.047146543860435486
            ],
            [
              -0.056492798030376434,
              -0.12364494055509567,
              0.07960353791713715,
              0.19450227916240692,
              0.0708780437707901
            ],
            [
              0.041261039674282074,
              -0.15635767579078674,
              -0.01790194772183895,
              0.10413583368062973,
              0.05095401406288147
            ],
            [
              -0.031393975019454956,
              -0.19929763674736023,
              -0.07565906643867493,
              0.13931915163993835,
              -0.0008203592151403427
            ]
          ],
          [
            [
              0.013972464017570019,
              -0.002887068083509803,
              -0.024291396141052246,
              0.025350097566843033,
              -0.013230061158537865
            ],
            [
              0.014880952425301075,
              0.0757165476679802,
              0.03721964731812477,
              0.06239666789770126,
              -0.04039391130208969
            ],
            [
              -0.08764557540416718,
              0.0379151776432991,
              0.08666053414344788,
              -0.03885437175631523,
              -0.037858717143535614
            ],
            [
              0.0016503754304721951,
              0.00656438572332263,
              0.06375822424888611,
              -0.045400992035865784,
              -0.06426162272691727
            ],
            [
              -0.01013699360191822,
              0.020665302872657776,
              0.06585394591093063,
              -0.04998592659831047,
              -0.060000620782375336
            ]
          ],
          [
            [
              -0.034535810351371765,
              0.09450037032365799,
              0.12544143199920654,
              -0.02700732834637165,
              -0.05811453238129616
            ],
            [
              -0.09737683087587357,
              0.12835417687892914,
              0.18370290100574493,
              0.13712236285209656,
              -0.10224806517362595
            ],
            [
              -0.23617802560329437,
              -0.13798724114894867,
              0.16598817706108093,
              0.06665366142988205,
              -0.12110579013824463
            ],
            [
              -0.24376919865608215,
              -0.10341519117355347,
              0.0852709710597992,
              0.07751183211803436,
              -0.10672289878129959
            ],
            [
              -0.09854649752378464,
              -0.0860038548707962,
              0.09549601376056671,
              0.05160045251250267,
              -0.1036430299282074
            ]
          ],
          [
            [
              -0.019383171573281288,
              -0.02019806019961834,
              -0.007115629035979509,
              -0.05607568845152855,
              -0.07477539032697678
            ],
            [
              0.012382256798446178,
              -0.06281095743179321,
              -0.020923390984535217,
              0.019717063754796982,
              -0.0548604354262352
            ],
            [
              -0.009464026428759098,
              -0.021122176200151443,
              0.09475868195295334,
              -0.026975132524967194,
              -0.09137636423110962
            ],
            [
              -0.1401790827512741,
              -0.06540106981992722,
              0.1331145465373993,
              -0.005978440400213003,
              -0.14656595885753632
            ],
            [
              -0.09798866510391235,
              0.021049590781331062,
              0.1345052272081375,
              -0.06898707151412964,
              -0.09917476773262024
            ]
          ],
          [
            [
              0.025373024865984917,
              0.011893575079739094,
              -0.026060422882437706,
              -0.07616522163152695,
              -0.0879935473203659
            ],
            [
              -0.002343578729778528,
              0.02173490822315216,
              0.078509621322155,
              -0.09991062432527542,
              -0.0694335550069809
            ],
            [
              -0.08360365778207779,
              0.0222227293998003,
              0.1086716428399086,
              -0.06953277438879013,
              -0.1243254691362381
            ],
            [
              -0.03678065910935402,
              0.055441491305828094,
              0.1591808944940567,
              -0.009759269654750824,
              -0.07067757844924927
            ],
            [
              -0.06705611199140549,
              0.06466404348611832,
              0.16856688261032104,
              -0.05102016031742096,
              -0.03694215416908264
            ]
          ],
          [
            [
              -0.03486756607890129,
              -0.006545043084770441,
              -0.002030595438554883,
              0.014614204876124859,
              -0.08624434471130371
            ],
            [
              -0.02591134048998356,
              0.004006923642009497,
              0.09301380068063736,
              0.017562231048941612,
              -0.0012286616256460547
            ],
            [
              -0.10191506892442703,
              -0.11878923326730728,
              0.06117410212755203,
              0.13542234897613525,
              -0.09925584495067596
            ],
            [
              -0.0794394239783287,
              -0.042112987488508224,
              0.07010199129581451,
              0.10308827459812164,
              -0.12081343680620193
            ],
            [
              -0.044895634055137634,
              -0.07834583520889282,
              0.13185858726501465,
              0.08787555992603302,
              -0.07136959582567215
            ]
          ],
          [
            [
              0.029741190373897552,
              -0.0710197165608406,
              -0.18746991455554962,
              -0.08482880890369415,
              -6.008782656863332e-05
            ],
            [
              0.02239322103559971,
              -0.0029552383348345757,
              -0.08650703728199005,
              -0.07395607978105545,
              0.004965996835380793
            ],
            [
              -0.11145410686731339,
              -0.09734541922807693,
              -0.10369227826595306,
              -0.11836288124322891,
              -0.0426911823451519
            ],
            [
              -0.11718141287565231,
              -0.14501814544200897,
              -0.1911499947309494,
              -0.1668495088815689,
              -0.13614565134048462
            ],
            [
              -0.13690713047981262,
              -0.09966534376144409,
              -0.08521638810634613,
              -0.1963912546634674,
              -0.17055878043174744
            ]
          ],
          [
            [
              -0.046200841665267944,
              -0.04379763826727867,
              0.007657206617295742,
              -0.026442915201187134,
              -0.05115135386586189
            ],
            [
              -0.00016905623488128185,
              -0.018790999427437782,
              -0.008064771071076393,
              -0.0021071068476885557,
              0.03506718575954437
            ],
            [
              0.055674683302640915,
              0.02434816211462021,
              -0.06494380533695221,
              0.012582886964082718,
              -0.010624404065310955
            ],
            [
              -0.023656440898776054,
              -0.04051017388701439,
              -0.014656369574368,
              0.01288601290434599,
              -0.04260212182998657
            ],
            [
              -0.03705701231956482,
              -0.032026294618844986,
              -0.0437902994453907,
              -0.009666798636317253,
              -0.08176510781049728
            ]
          ]
        ],
        [
          [
            [
              0.0464203841984272,
              0.07245977967977524,
              -0.007473560981452465,
              0.04163862764835358,
              0.06615214794874191
            ],
            [
              0.07638222724199295,
              0.010362709872424603,
              -0.03585970774292946,
              -0.04335511475801468,
              -0.023947184905409813
            ],
            [
              -0.11653920263051987,
              -0.08923262357711792,
              -0.08186964690685272,
              -0.11595939844846725,
              -0.0794120728969574
            ],
            [
              0.041163377463817596,
              -0.014475223608314991,
              -0.05878531560301781,
              -0.03835698962211609,
              -0.10396592319011688
            ],
            [
              0.08078303188085556,
              0.07618764042854309,
              0.07458481192588806,
              0.0075988322496414185,
              0.03758992627263069
            ]
          ],
          [
            [
              0.03488876670598984,
              0.006503969896584749,
              -0.05045976862311363,
              -0.07183172553777695,
              -0.11497747898101807
            ],
            [
              -0.06150023266673088,
              -0.07998614013195038,
              -0.011214097961783409,
              -0.04941430687904358,
              -0.011051301844418049
            ],
            [
              -0.056394997984170914,
              -0.06957274675369263,
              -0.04692153260111809,
              0.028986163437366486,
              0.010408400557935238
            ],
            [
              -0.0047906674444675446,
              -0.05203704908490181,
              0.0367187075316906,
              0.0006990011315792799,
              -0.07741787284612656
            ],
            [
              -0.01135216187685728,
              0.00404331274330616,
              -0.07015538215637207,
              -0.020292872563004494,
              0.026692278683185577
            ]
          ],
          [
            [
              0.04286475479602814,
              0.0968424528837204,
              0.06434118747711182,
              0.0761733278632164,
              -0.00020883107208646834
            ],
            [
              0.1011374220252037,
              0.008113591000437737,
              -0.004856566898524761,
              0.015238302759826183,
              0.021637683734297752
            ],
            [
              0.02040030248463154,
              0.0228248480707407,
              0.06220558285713196,
              0.048974089324474335,
              -0.027537358924746513
            ],
            [
              -0.01237285602837801,
              -0.026821698993444443,
              -0.013528053648769855,
              -0.009611338376998901,
              -0.10098780691623688
            ],
            [
              -0.02101431041955948,
              0.04220355302095413,
              -0.01576712355017662,
              -0.04008853808045387,
              0.02629276178777218
            ]
          ],
          [
            [
              -0.044815149158239365,
              -0.08937545120716095,
              -0.04951680451631546,
              -0.033811088651418686,
              -0.057927023619413376
            ],
            [
              -0.031210489571094513,
              -0.015057860873639584,
              0.0739484578371048,
              0.006506326142698526,
              0.006915226113051176
            ],
            [
              -0.023337850347161293,
              0.02426673099398613,
              0.05064176395535469,
              0.042053233832120895,
              0.025257565081119537
            ],
            [
              -0.06074097752571106,
              -0.07187683880329132,
              -0.07254806160926819,
              -0.022836927324533463,
              0.02012629061937332
            ],
            [
              -0.05622986704111099,
              -0.03458365052938461,
              -0.06702505052089691,
              0.0007503826636821032,
              0.034131333231925964
            ]
          ],
          [
            [
              -0.03811829537153244,
              0.02024138532578945,
              0.10487402230501175,
              0.05238113924860954,
              -0.03565188869833946
            ],
            [
              0.12621670961380005,
              0.10814236104488373,
              0.04817570373415947,
              0.0474361851811409,
              0.12969867885112762
            ],
            [
              0.06224112585186958,
              0.012211778201162815,
              0.03265588358044624,
              0.015802346169948578,
              0.03812376409769058
            ],
            [
              -0.1463266760110855,
              0.06800544261932373,
              0.06539308279752731,
              0.006114094518125057,
              -0.04792609438300133
            ],
            [
              0.08526333421468735,
              0.026110270991921425,
              0.016054388135671616,
              -0.021505584940314293,
              -0.07439173758029938
            ]
          ],
          [
            [
              -0.04475316032767296,
              0.01243892777711153,
              0.09704916924238205,
              0.03908903896808624,
              0.03052685037255287
            ],
            [
              0.16326220333576202,
              0.08802668005228043,
              0.11931917071342468,
              0.1501290202140808,
              0.0021844925358891487
            ],
            [
              0.2133798450231552,
              0.15608727931976318,
              0.03862083703279495,
              -0.036664195358753204,
              -0.00475681759417057
            ],
            [
              -0.1508396863937378,
              -0.15099558234214783,
              -0.050554852932691574,
              -0.031935662031173706,
              0.008802033960819244
            ],
            [
              0.09399328380823135,
              0.08638367801904678,
              0.12378387898206711,
              0.08620554953813553,
              0.07008253782987595
            ]
          ],
          [
            [
              0.02865036018192768,
              -0.03806144371628761,
              -0.1078544333577156,
              -0.04320613667368889,
              -0.05538591742515564
            ],
            [
              0.18340419232845306,
              0.06119526922702789,
              -0.00951922032982111,
              -0.030623311176896095,
              -0.05626872554421425
            ],
            [
              0.01158924214541912,
              0.0006329340394586325,
              -0.05888385698199272,
              0.0021645452361553907,
              0.05710450932383537
            ],
            [
              0.09889144450426102,
              0.13868504762649536,
              0.07466296851634979,
              0.07007670402526855,
              0.033953551203012466
            ],
            [
              0.15764614939689636,
              0.09641563892364502,
              0.03337063267827034,
              0.09595466405153275,
              0.06043405830860138
            ]
          ],
          [
            [
              -0.0064547439105808735,
              -0.025621166452765465,
              -0.02920803800225258,
              0.05049780011177063,
              -0.005892907734960318
            ],
            [
              -0.023740796372294426,
              0.02068077214062214,
              0.08673184365034103,
              0.0840192511677742,
              0.09323359280824661
            ],
            [
              0.08234938234090805,
              0.07926562428474426,
              0.09913425892591476,
              0.06493057310581207,
              0.039210882037878036
            ],
            [
              0.09232961386442184,
              0.018864283338189125,
              -0.0012891503283753991,
              -0.09813812375068665,
              -0.08547394722700119
            ],
            [
              -0.08958087861537933,
              -0.028904607519507408,
              -0.029558300971984863,
              -0.00012897253327537328,
              -0.04001542180776596
            ]
          ],
          [
            [
              -0.03050154075026512,
              -0.04678162932395935,
              -0.0038657106924802065,
              0.04125227779150009,
              -0.0015634592855349183
            ],
            [
              -0.040550347417593,
              -0.006370579358190298,
              0.014726604335010052,
              0.001177326776087284,
              0.04561842232942581
            ],
            [
              0.04488501697778702,
              0.034157492220401764,
              0.007023245561867952,
              -0.033766284584999084,
              -0.04452229291200638
            ],
            [
              -0.03542058914899826,
              0.010644138790667057,
              -0.07074617594480515,
              -0.09733168035745621,
              -0.10919664055109024
            ],
            [
              -0.018979212269186974,
              -0.08498668670654297,
              -0.1003463938832283,
              0.0027875229716300964,
              -0.04579105228185654
            ]
          ],
          [
            [
              0.0049317367374897,
              0.014818886294960976,
              -0.06825058162212372,
              -0.02780291624367237,
              0.00588958989828825
            ],
            [
              0.0018625040538609028,
              0.04592231288552284,
              0.03867405652999878,
              0.0024718272034078836,
              0.09573957324028015
            ],
            [
              0.15363876521587372,
              0.14253294467926025,
              0.048531994223594666,
              0.04610481858253479,
              -0.04058187082409859
            ],
            [
              0.012017281726002693,
              -0.027668524533510208,
              -0.08220472931861877,
              -0.07751649618148804,
              -0.13984821736812592
            ],
            [
              -0.052821964025497437,
              -0.042029961943626404,
              -0.06584730744361877,
              -0.048222169280052185,
              -0.09930574148893356
            ]
          ],
          [
            [
              0.1247459277510643,
              0.05352070927619934,
              0.07097882777452469,
              -0.03647870197892189,
              -0.028750086203217506
            ],
            [
              0.11815992742776871,
              0.10648088902235031,
              0.08155571669340134,
              0.009108003228902817,
              0.02581229992210865
            ],
            [
              0.02976015768945217,
              -0.04929818958044052,
              -0.01793835312128067,
              -0.08403591066598892,
              -0.042177844792604446
            ],
            [
              0.016102001070976257,
              -0.13925525546073914,
              -0.12812352180480957,
              -0.06997071951627731,
              -0.10386858135461807
            ],
            [
              0.10117079317569733,
              0.009112563915550709,
              0.05645653232932091,
              -0.005785417277365923,
              -0.011036468669772148
            ]
          ],
          [
            [
              0.00349068408831954,
              0.03957012668251991,
              -0.024425499141216278,
              -0.01380968652665615,
              0.049908604472875595
            ],
            [
              0.08647045493125916,
              0.04392114281654358,
              0.12741349637508392,
              0.04715752601623535,
              0.03337696194648743
            ],
            [
              0.08627130091190338,
              0.06945590674877167,
              -0.017907598987221718,
              -0.06780669838190079,
              -0.04317926988005638
            ],
            [
              -0.11359909176826477,
              -0.12709885835647583,
              -0.10923971980810165,
              -0.031841542571783066,
              0.001902971649542451
            ],
            [
              -0.07660306245088577,
              -0.03381943702697754,
              -0.005988625343888998,
              0.0172392800450325,
              -0.03205109015107155
            ]
          ],
          [
            [
              0.020548652857542038,
              -0.0038882221560925245,
              0.012171967886388302,
              -0.04178442433476448,
              0.026411116123199463
            ],
            [
              0.08126791566610336,
              0.037875354290008545,
              0.006582769099622965,
              0.038071408867836,
              0.03537669777870178
            ],
            [
              -0.0438397079706192,
              -0.04756249487400055,
              -0.09000390022993088,
              -0.09791442006826401,
              -0.00964463222771883
            ],
            [
              -0.12459387630224228,
              -0.1083836555480957,
              -0.06325695663690567,
              -0.04558489844202995,
              -0.05959932133555412
            ],
            [
              -0.05810082331299782,
              -0.00032487220596522093,
              0.053802553564310074,
              0.04952135682106018,
              0.0827164277434349
            ]
          ],
          [
            [
              -0.055244334042072296,
              0.02291727066040039,
              0.07595454901456833,
              0.016613107174634933,
              0.055887721478939056
            ],
            [
              0.05926019698381424,
              0.028841933235526085,
              0.03821943700313568,
              0.0641188994050026,
              0.015540466643869877
            ],
            [
              0.07160066813230515,
              0.07301808893680573,
              0.04376140981912613,
              -0.019719649106264114,
              -0.016732029616832733
            ],
            [
              -0.08458534628152847,
              -0.11314889043569565,
              -0.09501955658197403,
              -0.10193970054388046,
              -0.05510186403989792
            ],
            [
              -0.026222115382552147,
              -0.03496655449271202,
              -0.06121842935681343,
              0.018915168941020966,
              -0.04402298480272293
            ]
          ],
          [
            [
              -0.004827010445296764,
              -0.1465938538312912,
              -0.21433623135089874,
              -0.11494860053062439,
              -0.13641420006752014
            ],
            [
              -0.036995358765125275,
              0.03917407616972923,
              -0.01835472323000431,
              0.01051238738000393,
              0.05139686167240143
            ],
            [
              0.1751929670572281,
              0.11820878088474274,
              0.12389282137155533,
              0.0750257670879364,
              0.04463834688067436
            ],
            [
              0.1950664222240448,
              0.07957373559474945,
              0.04282127693295479,
              -0.09914237260818481,
              -0.17513753473758698
            ],
            [
              -0.06914862245321274,
              -0.13840362429618835,
              -0.10470998287200928,
              -0.10863453894853592,
              -0.0790531113743782
            ]
          ],
          [
            [
              -0.027055758982896805,
              -0.053549401462078094,
              -0.0331927165389061,
              0.05455421656370163,
              0.004349397961050272
            ],
            [
              -0.07455725967884064,
              0.022351974621415138,
              0.07345632463693619,
              0.047319717705249786,
              0.023916803300380707
            ],
            [
              0.12701416015625,
              0.1238676905632019,
              0.0634462982416153,
              0.05762907862663269,
              0.024870265275239944
            ],
            [
              0.08247339725494385,
              0.03261889889836311,
              -0.08290760964155197,
              -0.06838440150022507,
              -0.08174977451562881
            ],
            [
              -0.11212523281574249,
              -0.1213034987449646,
              -0.047891318798065186,
              -0.08712518215179443,
              -0.028984079137444496
            ]
          ]
        ],
        [
          [
            [
              0.035942040383815765,
              -0.0218324176967144,
              -0.09240705519914627,
              -0.019224833697080612,
              -0.03512576222419739
            ],
            [
              -0.06474743783473969,
              -0.07528915256261826,
              -0.0159522145986557,
              0.0020658692810684443,
              0.020232710987329483
            ],
            [
              0.005916775204241276,
              -0.005414150655269623,
              0.033227305859327316,
              0.0978609174489975,
              -0.032205261290073395
            ],
            [
              -0.11970538645982742,
              0.038517337292432785,
              0.06576239317655563,
              0.07273046672344208,
              -0.012089399620890617
            ],
            [
              -0.0495339073240757,
              0.0011167996563017368,
              0.08118593692779541,
              0.12711553275585175,
              0.10623223334550858
            ]
          ],
          [
            [
              -0.03370429947972298,
              -0.053963929414749146,
              0.009361105039715767,
              0.05970449000597,
              -0.039709024131298065
            ],
            [
              -0.02621382102370262,
              0.03512820601463318,
              0.02314787730574608,
              -0.06923796981573105,
              0.007265513297170401
            ],
            [
              0.017094627022743225,
              0.01997590996325016,
              -0.018173711374402046,
              0.06280569732189178,
              0.0516522154211998
            ],
            [
              -0.03219164162874222,
              0.06610672175884247,
              0.09754786640405655,
              0.09541359543800354,
              -0.10244979709386826
            ],
            [
              -0.005578937940299511,
              0.026596684008836746,
              0.06716354191303253,
              0.0653984397649765,
              -0.012661210261285305
            ]
          ],
          [
            [
              -0.0493599958717823,
              0.0505550354719162,
              0.054838474839925766,
              0.021503085270524025,
              0.08935768902301788
            ],
            [
              0.044885892421007156,
              0.007753064855933189,
              -0.009412633255124092,
              -0.03943149745464325,
              -0.0011110571213066578
            ],
            [
              0.06766340136528015,
              0.007109589874744415,
              -0.04764265567064285,
              -0.08257094025611877,
              -0.09685898572206497
            ],
            [
              0.03779863566160202,
              0.028368981555104256,
              0.030267462134361267,
              -0.006771438289433718,
              -0.07124993205070496
            ],
            [
              -0.04209549352526665,
              0.03741760179400444,
              0.027901852503418922,
              0.08328919857740402,
              0.039270952343940735
            ]
          ],
          [
            [
              -0.008799321949481964,
              0.026527617126703262,
              0.02475368231534958,
              0.06918014585971832,
              0.03456609696149826
            ],
            [
              0.00196104240603745,
              0.10248006135225296,
              -0.003996394108980894,
              0.0042347898706793785,
              -0.026850299909710884
            ],
            [
              -0.037114664912223816,
              0.0977330133318901,
              -0.00575679587200284,
              -0.019398173317313194,
              -0.12010322511196136
            ],
            [
              0.033734824508428574,
              -0.02246050350368023,
              -0.014281241223216057,
              0.04767357558012009,
              -0.06089336797595024
            ],
            [
              -0.010544965043663979,
              -0.09028516709804535,
              -0.05007822811603546,
              0.051299016922712326,
              -0.0321522019803524
            ]
          ],
          [
            [
              0.07945389300584793,
              0.044581372290849686,
              0.05115260183811188,
              -0.02372043766081333,
              0.12474744021892548
            ],
            [
              -0.015414824709296227,
              0.04041816666722298,
              0.08260921388864517,
              0.05674998089671135,
              0.174636110663414
            ],
            [
              0.10251656174659729,
              0.017449546605348587,
              -0.012339634820818901,
              -0.06246691569685936,
              0.03001321852207184
            ],
            [
              0.012003975920379162,
              0.036361631006002426,
              0.07523979246616364,
              0.06579925119876862,
              -0.03252886235713959
            ],
            [
              0.0019704110454767942,
              -0.01969735324382782,
              0.04629936069250107,
              0.0602877177298069,
              -0.016662713140249252
            ]
          ],
          [
            [
              0.10909689962863922,
              0.009162957780063152,
              -0.015202555805444717,
              -0.006119954865425825,
              0.06222273409366608
            ],
            [
              0.03115655668079853,
              0.003765036351978779,
              -0.005125068593770266,
              -0.002291350392624736,
              0.02273879572749138
            ],
            [
              0.09575744718313217,
              0.04846649244427681,
              -0.06157274171710014,
              -0.07918821275234222,
              -0.09761854261159897
            ],
            [
              -0.061987072229385376,
              -0.13134297728538513,
              -0.09385049343109131,
              0.03902014344930649,
              -0.00768522871658206
            ],
            [
              -0.15579694509506226,
              -0.21161812543869019,
              -0.10991902649402618,
              0.09964057058095932,
              0.05864103510975838
            ]
          ],
          [
            [
              -0.0432700589299202,
              0.006071412470191717,
              -0.08150242269039154,
              -0.07100726664066315,
              -0.06181149557232857
            ],
            [
              -0.15598009526729584,
              -0.16942666471004486,
              -0.172418013215065,
              -0.17499449849128723,
              -0.03582119569182396
            ],
            [
              -0.19669677317142487,
              -0.20804066956043243,
              -0.13968105614185333,
              0.03135092183947563,
              0.15168745815753937
            ],
            [
              -0.16384871304035187,
              -0.1347053050994873,
              -0.09051886945962906,
              0.07958970218896866,
              0.04266885295510292
            ],
            [
              -0.1479385495185852,
              -0.05300375446677208,
              -0.01024835929274559,
              0.1296938806772232,
              0.07140566408634186
            ]
          ],
          [
            [
              -0.011482429690659046,
              0.01709836721420288,
              -0.026453441008925438,
              -0.01564660295844078,
              -0.0018710289150476456
            ],
            [
              -0.01704086735844612,
              0.01285067293792963,
              0.024851582944393158,
              0.0483887605369091,
              0.05559452995657921
            ],
            [
              -0.017944393679499626,
              -0.030591130256652832,
              0.0036248008254915476,
              -0.022052563726902008,
              0.03785340487957001
            ],
            [
              0.001293605426326394,
              -0.027739137411117554,
              -0.10256393998861313,
              -0.014641660265624523,
              -0.14656345546245575
            ],
            [
              0.018494216725230217,
              0.005960152950137854,
              -0.020236989483237267,
              -0.021034562960267067,
              0.007800054736435413
            ]
          ],
          [
            [
              0.045178983360528946,
              0.0029666204936802387,
              0.029479803517460823,
              -0.06896620988845825,
              -0.06675656884908676
            ],
            [
              0.028085937723517418,
              0.05754484981298447,
              -0.002782033057883382,
              -0.06833576411008835,
              -0.03932058811187744
            ],
            [
              0.07009907066822052,
              0.04347856342792511,
              -0.053624652326107025,
              0.0438082292675972,
              -0.053306128829717636
            ],
            [
              -0.05795421451330185,
              -0.04149077832698822,
              0.008457539603114128,
              0.06547410041093826,
              -0.10193352401256561
            ],
            [
              0.019857633858919144,
              0.006077189464122057,
              0.009741466492414474,
              0.12277578562498093,
              -0.02001628838479519
            ]
          ],
          [
            [
              -0.06406758725643158,
              -0.01116602960973978,
              -0.012399649247527122,
              -0.056843265891075134,
              -0.016649579629302025
            ],
            [
              -0.0006473525427281857,
              0.01524684950709343,
              0.03655897453427315,
              0.023905955255031586,
              0.057523466646671295
            ],
            [
              -0.04078060761094093,
              0.050206687301397324,
              -0.006679634563624859,
              0.004805360455065966,
              0.019283553585410118
            ],
            [
              0.061170678585767746,
              0.06615681946277618,
              0.009626004844903946,
              0.024233918637037277,
              -0.05394846946001053
            ],
            [
              0.03705015406012535,
              0.0954006016254425,
              0.11421249061822891,
              0.042215436697006226,
              0.014662489295005798
            ]
          ],
          [
            [
              -0.01693395897746086,
              -0.037091195583343506,
              -0.03844781965017319,
              -0.039075467735528946,
              0.038861799985170364
            ],
            [
              -0.057818491011857986,
              -0.10336030274629593,
              -0.027867577970027924,
              -0.035968102514743805,
              0.09626103937625885
            ],
            [
              -0.005564042832702398,
              -0.04591694101691246,
              -0.03987325727939606,
              -0.115252286195755,
              0.0809648185968399
            ],
            [
              -0.07590740919113159,
              0.04474134370684624,
              0.10625939816236496,
              0.06608849763870239,
              -0.04909886419773102
            ],
            [
              -0.02420775592327118,
              0.07021883875131607,
              0.17662250995635986,
              0.10064058750867844,
              0.028428630903363228
            ]
          ],
          [
            [
              0.09056075662374496,
              0.054566577076911926,
              0.0016059557674452662,
              -0.02814883179962635,
              0.06205182522535324
            ],
            [
              0.008160616271197796,
              0.02821343205869198,
              0.06747333705425262,
              0.08061869442462921,
              0.10900089889764786
            ],
            [
              0.037560924887657166,
              0.018683789297938347,
              0.02866131067276001,
              -0.031104009598493576,
              -0.05633993074297905
            ],
            [
              -0.022455807775259018,
              -0.06155558302998543,
              -0.1247815489768982,
              -0.02833985537290573,
              -0.03048621490597725
            ],
            [
              -0.16429072618484497,
              -0.04294846951961517,
              -0.0918959379196167,
              -0.005802217870950699,
              0.07039758563041687
            ]
          ],
          [
            [
              0.0050992900505661964,
              0.02541700191795826,
              -0.01414196565747261,
              0.03050321154296398,
              0.05236531421542168
            ],
            [
              -0.03621099889278412,
              0.0007279258570633829,
              0.010096201673150063,
              0.009138519875705242,
              0.12072703242301941
            ],
            [
              -0.009288856759667397,
              0.03704153001308441,
              0.006132873706519604,
              -0.0441737100481987,
              -0.09050125628709793
            ],
            [
              -0.08315125107765198,
              0.02128198929131031,
              0.014375997707247734,
              -0.06315954774618149,
              -0.049514289945364
            ],
            [
              -0.08169243484735489,
              0.04738498851656914,
              -0.023186011239886284,
              -0.12039616703987122,
              -0.05336204543709755
            ]
          ],
          [
            [
              0.004307274241000414,
              -0.05014246702194214,
              -0.019111046567559242,
              -0.00028242345433682203,
              0.041932687163352966
            ],
            [
              0.02694409340620041,
              0.061850666999816895,
              0.07927051931619644,
              -0.02049892023205757,
              0.015606346540153027
            ],
            [
              0.047578852623701096,
              0.04897451773285866,
              0.0018893851665779948,
              -0.06767301261425018,
              -0.08432101458311081
            ],
            [
              0.04410160332918167,
              -0.027208441868424416,
              -0.009927293285727501,
              0.0022675292566418648,
              -0.018894536420702934
            ],
            [
              -0.03690159693360329,
              -0.05246754735708237,
              0.06090391427278519,
              0.010575979948043823,
              -0.025121377781033516
            ]
          ],
          [
            [
              -0.13473385572433472,
              -0.15766140818595886,
              -0.2312675416469574,
              -0.17812542617321014,
              -0.08820251375436783
            ],
            [
              -0.18419921398162842,
              -0.1458406299352646,
              -0.16809137165546417,
              0.02254626154899597,
              0.0823202133178711
            ],
            [
              -0.0823131799697876,
              -0.09184855222702026,
              -0.11126524209976196,
              -0.0038329570088535547,
              0.06318438053131104
            ],
            [
              -0.04222307354211807,
              0.012764726765453815,
              -0.04877445474267006,
              -0.08496053516864777,
              -0.17372779548168182
            ],
            [
              0.024416016414761543,
              0.01627127081155777,
              0.08185197412967682,
              0.0823047012090683,
              0.01082143746316433
            ]
          ],
          [
            [
              -0.046427298337221146,
              0.0072587220929563046,
              -0.03569333255290985,
              -0.029171006754040718,
              0.0585879348218441
            ],
            [
              0.01607215218245983,
              0.011876200325787067,
              -0.008767811581492424,
              0.0706680491566658,
              0.0769161805510521
            ],
            [
              0.03792182356119156,
              0.03141852840781212,
              0.0476997010409832,
              0.06947275996208191,
              -0.0056183733977377415
            ],
            [
              0.041204772889614105,
              0.023285681381821632,
              -0.050137393176555634,
              0.0036800734233111143,
              -0.11239004880189896
            ],
            [
              0.015338726341724396,
              -0.07466122508049011,
              -0.025668486952781677,
              0.010667679831385612,
              -0.00512657267972827
            ]
          ]
        ],
        [
          [
            [
              0.10225814580917358,
              0.07858447730541229,
              0.04329309239983559,
              0.006025401875376701,
              0.0149237597361207
            ],
            [
              0.08862507343292236,
              0.022421250119805336,
              -0.02139141410589218,
              0.040339142084121704,
              0.005866503342986107
            ],
            [
              0.06724244356155396,
              -0.03057178109884262,
              -0.11370131373405457,
              -0.019716138020157814,
              -0.046735964715480804
            ],
            [
              -0.08646190166473389,
              -0.10706434398889542,
              -0.09606143832206726,
              -0.0470864437520504,
              -0.035145580768585205
            ],
            [
              -0.08197791874408722,
              -0.04496169462800026,
              0.04304656386375427,
              0.021832454949617386,
              -0.046875908970832825
            ]
          ],
          [
            [
              -0.0076520717702806,
              0.011364653706550598,
              0.0980045273900032,
              -0.06985021382570267,
              -0.020210575312376022
            ],
            [
              0.09096354991197586,
              -0.06230321526527405,
              -0.07949303835630417,
              -0.08909314125776291,
              0.01975821703672409
            ],
            [
              0.14171823859214783,
              0.05020704120397568,
              -0.10796644538640976,
              -0.0414489209651947,
              0.03988026827573776
            ],
            [
              0.03299522027373314,
              0.06048459932208061,
              -0.03261367604136467,
              0.10772985219955444,
              0.0575731135904789
            ],
            [
              -0.023424208164215088,
              0.009729529730975628,
              0.08433306962251663,
              0.10815253853797913,
              0.029342757537961006
            ]
          ],
          [
            [
              -0.07321222126483917,
              -0.0636945590376854,
              -0.0816098228096962,
              0.010169426910579205,
              0.05166349187493324
            ],
            [
              0.06632811576128006,
              -0.03413474187254906,
              0.10023488849401474,
              0.10766960680484772,
              -0.07847565412521362
            ],
            [
              0.07255453616380692,
              0.04169665277004242,
              0.06074484810233116,
              -0.058821044862270355,
              -0.06455585360527039
            ],
            [
              -0.0101873017847538,
              -0.04483357071876526,
              0.013677075505256653,
              -0.06117366626858711,
              -0.028015034273266792
            ],
            [
              -0.047403182834386826,
              0.0190767552703619,
              -0.1080719605088234,
              -0.07796749472618103,
              -0.05887502431869507
            ]
          ],
          [
            [
              -0.1082601547241211,
              -0.06706371903419495,
              -0.1181877851486206,
              -0.13581542670726776,
              -0.05117659643292427
            ],
            [
              -0.004256847780197859,
              -0.05439114198088646,
              -0.12434811890125275,
              0.03400281071662903,
              0.07055363804101944
            ],
            [
              0.007573578041046858,
              0.020549854263663292,
              0.007220020983368158,
              0.13302423059940338,
              0.15864649415016174
            ],
            [
              0.01160484366118908,
              0.02363927848637104,
              0.10205698758363724,
              0.14088839292526245,
              0.03403807431459427
            ],
            [
              -0.024749508127570152,
              0.01885422132909298,
              0.10846246778964996,
              0.08884473145008087,
              -0.0353698693215847
            ]
          ],
          [
            [
              -0.09429842978715897,
              0.00320825120434165,
              -0.020010406151413918,
              -0.08134553581476212,
              0.0032742363400757313
            ],
            [
              0.03276091441512108,
              -0.12337283045053482,
              0.0052534048445522785,
              0.06910256296396255,
              0.04525718465447426
            ],
            [
              0.028892291709780693,
              0.04966926574707031,
              0.10747087001800537,
              -0.018516162410378456,
              -0.16272589564323425
            ],
            [
              0.009962747804820538,
              -0.05387566238641739,
              -0.06009577214717865,
              -0.12461236119270325,
              -0.021984180435538292
            ],
            [
              -0.10392159968614578,
              -0.19791753590106964,
              -0.02562515251338482,
              -0.05354931205511093,
              -0.043190956115722656
            ]
          ],
          [
            [
              0.036670982837677,
              -0.14659273624420166,
              -0.11545446515083313,
              -0.11326960474252701,
              0.025418773293495178
            ],
            [
              0.039798516780138016,
              0.013510256074368954,
              -0.034249141812324524,
              0.13781975209712982,
              0.2001206874847412
            ],
            [
              -0.04236671328544617,
              0.05883312597870827,
              0.14382797479629517,
              0.18079207837581635,
              -0.06296507269144058
            ],
            [
              0.001585372956469655,
              -0.036407142877578735,
              -0.054139867424964905,
              -0.15254810452461243,
              -0.15571489930152893
            ],
            [
              -0.09884804487228394,
              -0.2017180323600769,
              -0.15486450493335724,
              -0.2015160173177719,
              -0.10255691409111023
            ]
          ],
          [
            [
              0.21330419182777405,
              0.13987912237644196,
              0.12374180555343628,
              0.1837712824344635,
              0.1150113120675087
            ],
            [
              0.09033197164535522,
              0.15998822450637817,
              0.020634623244404793,
              -0.026713965460658073,
              0.004911351948976517
            ],
            [
              -0.0040916455909609795,
              -0.061061467975378036,
              -0.14734362065792084,
              -0.13978998363018036,
              -0.05198047310113907
            ],
            [
              -0.07338901609182358,
              -0.1016392633318901,
              -0.15577255189418793,
              -0.06788630783557892,
              -0.04973786696791649
            ],
            [
              -0.10569078475236893,
              -0.019898204132914543,
              0.0424305684864521,
              -0.03605342656373978,
              -0.0719565898180008
            ]
          ],
          [
            [
              -0.032723985612392426,
              -0.12373325228691101,
              -0.150271475315094,
              -0.1253194808959961,
              -0.1149832010269165
            ],
            [
              -0.11709900200366974,
              -0.173294797539711,
              -0.13725942373275757,
              -0.033789120614528656,
              0.0967656746506691
            ],
            [
              -0.11517847329378128,
              -0.02431333251297474,
              0.050167955458164215,
              0.09090674668550491,
              0.12455766648054123
            ],
            [
              -0.04392405226826668,
              0.06202198192477226,
              0.0635976642370224,
              0.048416752368211746,
              0.008638221770524979
            ],
            [
              -0.020597947761416435,
              0.04198653623461723,
              -0.009553336538374424,
              0.01898076944053173,
              -0.07255663722753525
            ]
          ],
          [
            [
              0.0691199079155922,
              -0.04726404324173927,
              -0.027341537177562714,
              -0.08820503950119019,
              0.040937744081020355
            ],
            [
              0.06966203451156616,
              -0.0036870986223220825,
              0.05814613401889801,
              0.07545091211795807,
              0.013866936787962914
            ],
            [
              0.15148694813251495,
              0.04252754524350166,
              0.10143487900495529,
              0.010964828543365002,
              0.015036063268780708
            ],
            [
              0.0250565018504858,
              -0.0001649527985136956,
              -0.0021510585211217403,
              -0.016981421038508415,
              -0.0033503263257443905
            ],
            [
              0.0020070585887879133,
              0.00022721510322298855,
              0.061005737632513046,
              -0.0432371087372303,
              -0.12533274292945862
            ]
          ],
          [
            [
              -0.11589006334543228,
              -0.11390380561351776,
              -0.12293122708797455,
              -0.09168821573257446,
              -0.04882397875189781
            ],
            [
              -0.00422725360840559,
              -0.002833558712154627,
              -0.008102121762931347,
              -0.0016526884865015745,
              0.032813508063554764
            ],
            [
              0.11259719729423523,
              0.10334664583206177,
              0.1028195321559906,
              0.11714742332696915,
              0.030555495992302895
            ],
            [
              0.05242585018277168,
              0.08799095451831818,
              0.07511352747678757,
              0.0667947381734848,
              -0.06767269968986511
            ],
            [
              -0.0120643749833107,
              0.07383683323860168,
              0.00952322781085968,
              -0.02399273030459881,
              -0.07443330436944962
            ]
          ],
          [
            [
              -0.08038924634456635,
              0.06424672901630402,
              0.015212340280413628,
              -0.07255914062261581,
              0.07364267110824585
            ],
            [
              0.11412008851766586,
              -0.029802586883306503,
              0.04228297621011734,
              0.04002736881375313,
              0.03295447304844856
            ],
            [
              0.09381139278411865,
              -0.02048717997968197,
              0.06749098002910614,
              -0.003407646669074893,
              -0.032763246446847916
            ],
            [
              0.024901967495679855,
              -0.0015251792501658201,
              0.031844157725572586,
              -0.034205567091703415,
              -0.11335020512342453
            ],
            [
              -0.19211998581886292,
              -0.0833919569849968,
              -0.10684368014335632,
              -0.07800136506557465,
              -0.00959524605423212
            ]
          ],
          [
            [
              -0.05750413239002228,
              -0.04272359609603882,
              -0.09028346836566925,
              -0.056108180433511734,
              -0.003391151549294591
            ],
            [
              -0.0705847218632698,
              0.03359193354845047,
              0.036882173269987106,
              0.050066832453012466,
              0.09286639839410782
            ],
            [
              -0.12759631872177124,
              0.007994099520146847,
              0.16707584261894226,
              0.10266488045454025,
              -0.03989522159099579
            ],
            [
              0.018397144973278046,
              0.031197842210531235,
              0.09733839333057404,
              -0.054014235734939575,
              -0.19183945655822754
            ],
            [
              0.025681640952825546,
              -0.1671561449766159,
              -0.11195771396160126,
              -0.17099925875663757,
              -0.060062725096940994
            ]
          ],
          [
            [
              -0.10257086157798767,
              -0.049807753413915634,
              -0.04837591201066971,
              -0.0003914122353307903,
              -0.014143417589366436
            ],
            [
              -0.05243108421564102,
              0.04905327036976814,
              0.022144898772239685,
              -0.001896717119961977,
              0.026757443323731422
            ],
            [
              -0.04500832036137581,
              0.035943347960710526,
              0.04549013450741768,
              0.028177155181765556,
              -0.04284331202507019
            ],
            [
              -0.08533034473657608,
              -0.0218987874686718,
              -0.042718950659036636,
              -0.09763073176145554,
              -0.10652654618024826
            ],
            [
              -0.037478502839803696,
              -0.01798868179321289,
              -0.11037448048591614,
              -0.09437378495931625,
              0.04951047524809837
            ]
          ],
          [
            [
              -0.058642707765102386,
              -0.04364578053355217,
              -0.015478003770112991,
              -0.05081968754529953,
              0.06293575465679169
            ],
            [
              -0.014409312978386879,
              -0.039855800569057465,
              0.08006704598665237,
              0.06614703685045242,
              0.09247443079948425
            ],
            [
              0.05893731117248535,
              0.06299363076686859,
              0.037205979228019714,
