{
  "weights": {
    "fc1.weight": [
      [
        0.698434591293335,
        -0.5784993767738342
      ],
      [
        -1.3927257061004639,
        0.01800616644322872
      ],
      [
        0.6381295919418335,
        -0.6834921836853027
      ],
      [
        2.3165171146392822,
        0.33389052748680115
      ],
      [
        0.6430826783180237,
        0.37761473655700684
      ],
      [
        -0.9048976898193359,
        0.9908331632614136
      ],
      [
        0.8211415410041809,
        -0.23296065628528595
      ],
      [
        2.379030704498291,
        -0.3777332603931427
      ]
    ],
    "fc1.bias": [
      1.507369875907898,
      0.43494561314582825,
      0.9314581155776978,
      1.1700716018676758,
      1.0429210662841797,
      1.2280499935150146,
      1.418396234512329,
      -1.0442065000534058
    ],
    "fc2.weight": [
      [
        -0.3444824516773224,
        -0.17863793671131134,
        0.23018386960029602,
        -0.25019726157188416,
        -0.1289912760257721,
        -0.3360116183757782,
        -0.05691501870751381,
        -0.05126093327999115
      ],
      [
        -0.2291233390569687,
        0.22993279993534088,
        -0.09656332433223724,
        0.020375540480017662,
        -0.3057297468185425,
        -0.376796692609787,
        0.22255422174930573,
        -0.3682427406311035
      ],
      [
        0.6289110779762268,
        0.6070749163627625,
        0.5739928483963013,
        -1.6546416282653809,
        0.7118367552757263,
        -0.1275668889284134,
        0.46014055609703064,
        1.9661604166030884
      ],
      [
        -0.7370002269744873,
        0.6882493495941162,
        0.14077892899513245,
        1.5033572912216187,
        0.2375093251466751,
        0.6846432089805603,
        -1.682228684425354,
        -1.1442639827728271
      ]
    ],
    "fc2.bias": [
      0.08805829286575317,
      -0.20428213477134705,
      0.161265566945076,
      -0.03970910236239433
    ],
    "fc3.weight": [
      [
        0.2336403727531433,
        -0.38149595260620117,
        -0.7360029220581055,
        1.238714337348938
      ],
      [
        -0.4693554639816284,
        -0.2232561707496643,
        0.9016331434249878,
        -0.47603756189346313
      ]
    ],
    "fc3.bias": [
      0.5456535220146179,
      -0.9915190935134888
    ]
  },
  "scaler_mean": [
    0.501650690818613,
    0.26278288407221545
  ],
  "scaler_scale": [
    0.8945152972796266,
    0.5310627929471833
  ]
}